<?xml version="1.0"?>
<opencv_storage>
<opencv_ml_svm>
  <format>3</format>
  <svmType>C_SVC</svmType>
  <kernel>
    <type>LINEAR</type></kernel>
  <C>3.9062500000000000e-01</C>
  <term_criteria><epsilon>5.0000000000000002e-05</epsilon>
    <iterations>10000</iterations></term_criteria>
  <var_count>170</var_count>
  <class_count>2</class_count>
  <class_labels type_id="opencv-matrix">
    <rows>2</rows>
    <cols>1</cols>
    <dt>i</dt>
    <data>
      0 1</data></class_labels>
  <class_weights type_id="opencv-matrix">
    <rows>2</rows>
    <cols>1</cols>
    <dt>f</dt>
    <data>
      5. 1.</data></class_weights>
  <sv_total>1</sv_total>
  <support_vectors>
    <_>
      -5.16997814e-01 3.54875550e-02 -1.28100500e-01 -1.83095217e-01
      -3.59091640e-01 -2.06020609e-01 -2.25976437e-01 -1.74396738e-01
      -3.70351791e-01 1.84666172e-01 2.72895116e-02 2.06745178e-01
      -6.11784607e-02 -1.88028112e-01 3.55691075e-01 1.42102549e-02
      1.98489781e-02 5.41157126e-02 2.68301725e-01 -3.22729498e-01
      2.39621565e-01 4.61124182e-01 6.72496498e-01 2.90604264e-01
      1.81461111e-01 -4.11525667e-01 -6.88666523e-01 -7.51150429e-01
      -2.03868687e-01 -1.02939248e+00 -1.03115737e-01 1.74041376e-01
      6.90054297e-01 5.08922279e-01 2.77395338e-01 -2.65774786e-01
      -3.08306724e-01 2.32912935e-02 -4.49811012e-01 -7.85941601e-01
      1.55365169e-01 1.49220690e-01 3.32057208e-01 4.08522218e-01
      -2.37564728e-01 2.27331012e-01 2.64522165e-01 3.14385384e-01
      -2.61445846e-02 -2.97118872e-01 -2.17164278e-01 5.86399853e-01
      7.04288006e-01 2.57297456e-01 -4.06652033e-01 -2.41442949e-01
      -9.35368061e-01 1.41611651e-01 -4.16562229e-01 -4.90192384e-01
      -1.63167393e+00 -4.84235436e-01 -1.70661416e-02 -4.12939310e-01
      -4.77294505e-01 2.56972194e-01 -3.07795465e-01 1.27636809e-02
      -8.32748771e-01 2.28491116e+00 -1.35634732e+00 -6.42917693e-01
      -6.49596989e-01 -3.97711158e-01 -4.14990097e-01 -1.12717003e-01
      1.45971067e-02 -5.35387397e-02 -1.15523815e-01 2.04254436e+00
      -7.44738460e-01 1.32842734e-01 -7.45871842e-01 -2.82948706e-02
      -1.15127504e-01 -7.16810763e-01 -7.13162795e-02 2.68434346e-01
      -9.40737948e-02 -8.96934748e-01 -9.45513129e-01 8.86354029e-01
      3.94373626e-01 -1.14623182e-01 -7.70430565e-01 -1.70752063e-01
      -5.81485569e-01 -3.27419400e-01 2.15384692e-01 -4.51808065e-01
      -1.09816730e+00 -6.89803839e-01 -4.06825662e-01 -2.60041505e-01
      -1.42760098e-01 1.83292404e-01 -4.76633132e-01 -4.81454343e-01
      -6.62217081e-01 1.44688928e+00 -1.48554969e+00 -6.82674289e-01
      -1.02764249e+00 -7.66609013e-02 1.58412699e-02 -1.12079215e+00
      2.55034864e-01 2.33901054e-01 -5.53956151e-01 2.28243971e+00
      -6.37899101e-01 -2.10595131e-02 -8.12907398e-01 -5.86495280e-01
      -3.96966279e-01 9.54958797e-02 -1.21575415e-01 1.75244033e-01
      -2.46861219e-01 -6.19704247e-01 6.14372119e-02 -9.23125893e-02
      4.23349738e-01 1.33941785e-01 -1.55795887e-01 -4.32142496e-01
      3.79704505e-01 2.46536419e-01 4.80199039e-01 -2.63018131e-01
      3.33115935e-01 8.36474061e-01 4.28096861e-01 -3.43963116e-01
      -6.95317805e-01 3.72685581e-01 3.53012651e-01 -1.07411601e-01
      -4.06901866e-01 -5.28661907e-01 1.47905305e-01 4.25693005e-01
      -5.00334501e-01 -3.42331171e-01 -8.55037510e-01 6.80530444e-03
      3.51399928e-01 -4.52868819e-01 -5.08848310e-01 -3.70706260e-01
      -5.55136725e-02 1.87018305e-01 -2.20670812e-02 -9.61527750e-02
      3.13338518e-01 1.78424507e-01 1.42735496e-01 7.26406090e-03
      1.00342430e-01 -2.80497581e-01</_></support_vectors>
  <uncompressed_sv_total>145</uncompressed_sv_total>
  <uncompressed_support_vectors>
    <_>
      5.11449873e-01 7.94657394e-02 1.06384158e-01 1.29111677e-01
      1.29434064e-01 9.46174264e-02 1.47970691e-01 1.69086337e-01
      1.82464942e-01 7.71123946e-01 1.19267680e-01 1.09851807e-02
      8.63121375e-02 7.53269568e-02 2.51089856e-02 1.25544928e-02
      2.82476097e-02 4.70793471e-02 2.35396735e-02 9.83958364e-01
      6.30031943e-01 3.41267325e-02 9.18796584e-02 2.57263035e-01
      1.41757190e-01 1.12880722e-01 1.86384454e-01 1.26006395e-01
      1.28631517e-01 6.53658152e-01 6.03612542e-01 5.48738651e-02
      7.13360235e-02 1.89314842e-01 3.62167507e-01 7.40797222e-02
      2.05777004e-01 1.20722502e-01 1.83827445e-01 6.03612542e-01
      1.52984202e-01 6.37434190e-03 9.56151262e-03 1.43422689e-02
      9.56151262e-02 1.11550987e-02 2.07166113e-02 2.70909537e-02
      1.21112496e-01 9.75274324e-01 5.83198905e-01 6.24855980e-02
      1.53610423e-01 5.46748973e-02 6.50891662e-02 5.20713292e-02
      1.11953363e-01 3.22842240e-01 2.86392301e-01 6.50891602e-01
      7.13181376e-01 2.02887803e-01 2.33628377e-01 3.01257640e-01
      1.50628820e-01 2.18258098e-01 2.92035460e-01 2.79739231e-01
      1.69073164e-01 2.05961868e-01 6.71736121e-01 2.10116506e-01
      2.41952345e-01 2.92889684e-01 1.87831432e-01 2.13300094e-01
      2.92889684e-01 3.02440435e-01 2.19667256e-01 2.32401595e-01
      6.03697062e-01 7.07260147e-02 6.56741560e-02 7.07260147e-02
      1.11140884e-01 6.31482303e-02 1.16192743e-01 1.59133539e-01
      3.43526363e-01 6.69371247e-01 5.68174064e-01 1.02836937e-01
      6.94149286e-02 6.94149286e-02 1.10549703e-01 5.14184684e-02
      1.00266010e-01 1.72251865e-01 4.11347747e-01 6.58156395e-01
      6.87551558e-01 1.66393742e-01 2.63718396e-01 2.91973948e-01
      2.16625825e-01 1.63254246e-01 2.60578901e-01 2.22904831e-01
      2.54299879e-01 2.98252940e-01 6.57318890e-01 1.91452101e-01
      2.93559879e-01 3.41422915e-01 2.61651188e-01 1.65925145e-01
      2.58460343e-01 2.23360777e-01 2.13788182e-01 2.64842063e-01
      6.15597844e-01 4.45010513e-02 9.88912210e-02 4.69733290e-02
      6.18070140e-02 7.16961324e-02 1.18669465e-01 3.16451907e-01
      1.78004205e-01 6.72460318e-01 1.56289116e-01 9.44604501e-02
      1.03047770e-02 1.88920908e-02 5.83937354e-02 9.44604501e-02
      2.40444783e-02 3.09143309e-02 8.58731419e-02 9.72083926e-01
      7.33658314e-01 4.84262928e-02 3.87410335e-02 8.23246986e-02
      1.50121510e-01 1.62228078e-01 1.18644416e-01 1.21065728e-01
      1.25908360e-01 5.98064721e-01 6.46103919e-01 2.65191905e-02
      4.33950424e-02 8.19684118e-02 7.47359022e-02 8.67900848e-02
      2.09742695e-01 1.61525980e-01 1.56704307e-01 6.82266474e-01
      1.23528793e-01 1.26696201e-02 2.85066459e-02 2.05881335e-02
      2.85066459e-02 1.26696201e-02 1.01356961e-01 1.04524367e-01
      1.26696201e-02 9.80311871e-01</_>
    <_>
      4.66304034e-01 1.00529104e-01 7.53574967e-02 1.44579425e-01
      1.17047973e-01 7.85039514e-02 1.57322541e-01 1.36241332e-01
      1.84067383e-01 8.05491447e-01 1.08838663e-01 4.47282195e-03
      4.47282158e-02 3.57825756e-02 1.04365842e-02 8.94564390e-03
      4.02553938e-02 7.15651512e-02 2.83278711e-02 9.88493621e-01
      6.07976437e-01 3.36327404e-02 4.65684086e-02 2.74236172e-01
      1.26769558e-01 7.76140168e-02 2.04383567e-01 1.60402298e-01
      1.29356682e-01 6.67480528e-01 5.57234108e-01 3.29399481e-02
      5.48999086e-02 1.67444721e-01 3.12929481e-01 1.09799817e-01
      1.97639674e-01 1.53719753e-01 2.25089639e-01 6.58798933e-01
      1.29655525e-01 1.40590332e-02 6.24845922e-03 1.56211480e-02
      7.18572810e-02 1.71832629e-02 4.06149849e-02 3.28044109e-02
      9.52890068e-02 9.82570231e-01 5.51388741e-01 1.16961248e-01
      1.47593960e-01 9.74677056e-02 1.42024368e-01 5.84806241e-02
      1.44809172e-01 2.84048736e-01 3.06327075e-01 6.57210827e-01
      6.22855067e-01 2.81693250e-01 1.65886015e-01 3.53681505e-01
      1.53366312e-01 1.47106469e-01 4.06890243e-01 1.50236398e-01
      2.25354597e-01 3.09862554e-01 6.57808542e-01 3.70596379e-01
      1.66768372e-01 2.96477109e-01 7.72075802e-02 1.66768372e-01
      2.62505770e-01 1.94563091e-01 3.21183532e-01 2.65594065e-01
      5.91908813e-01 6.06463924e-02 7.03498125e-02 8.97566602e-02
      1.11589365e-01 6.54981062e-02 1.23718642e-01 1.35847926e-01
      1.96494311e-01 7.37460136e-01 5.21793067e-01 8.31844062e-02
      4.53733131e-02 7.31014460e-02 1.00829586e-01 4.78940532e-02
      9.32673663e-02 1.76451772e-01 4.48691636e-01 6.78078949e-01
      6.90536261e-01 2.83613086e-01 2.12709829e-01 3.17523360e-01
      1.38723791e-01 1.63385808e-01 2.89778590e-01 1.47972047e-01
      2.18875319e-01 3.11357856e-01 6.17456496e-01 2.87541032e-01
      1.27123401e-01 4.47958648e-01 9.38291773e-02 1.54364124e-01
      3.93477201e-01 1.21069908e-01 2.14899078e-01 2.66353786e-01
      6.15203440e-01 7.72221908e-02 7.46481121e-02 7.20740408e-02
      1.08111061e-01 6.94999695e-02 1.08111061e-01 2.80573934e-01
      2.52259135e-01 6.58962667e-01 9.67129096e-02 5.50519638e-02 0.
      8.92734528e-03 3.86851653e-02 3.71972732e-02 5.95156383e-03
      1.78546906e-02 9.07613486e-02 9.87959623e-01 5.79343319e-01
      3.39364260e-02 4.12085205e-02 1.21201530e-01 1.93922445e-01
      1.21201530e-01 1.23625562e-01 9.45371911e-02 1.28473625e-01
      7.44177401e-01 5.74555755e-01 3.12519856e-02 7.21199661e-02
      1.25007942e-01 1.65875927e-01 6.25039712e-02 1.65875927e-01
      1.00967959e-01 1.12987950e-01 7.52451658e-01 1.59564137e-01
      1.77293494e-02 2.09528655e-02 3.38469371e-02 3.86822149e-02
      1.93411075e-02 8.21997076e-02 8.05879459e-02 1.93411075e-02
      9.78337705e-01</_>
    <_>
      3.14906269e-01 7.45401680e-02 1.05808511e-01 1.02251917e-01
      1.39003336e-01 8.16533491e-02 1.12328924e-01 1.35891318e-01
      1.82571545e-01 8.84997785e-01 6.98452815e-02 4.55512712e-03
      6.68085292e-02 8.35106671e-02 9.11025424e-03 7.59187853e-03
      3.64410169e-02 5.76982759e-02 4.25145179e-02 9.88462567e-01
      3.49312395e-01 4.91220541e-02 1.14618130e-01 3.32938373e-01
      1.36450157e-01 7.91410878e-02 1.96488217e-01 2.59255290e-01
      1.69198185e-01 7.69578874e-01 2.66606480e-01 9.04994532e-02
      8.31616595e-02 5.62564135e-02 3.44876289e-01 1.17404692e-01
      8.31616595e-02 1.02729104e-01 2.10350066e-01 8.46292138e-01
      5.45744039e-02 1.36436010e-02 1.66755132e-02 6.06382266e-03
      1.37951970e-01 6.06382266e-03 1.66755132e-02 9.09573399e-03
      1.22792408e-01 9.80823338e-01 4.15710837e-01 2.80541070e-02
      1.86177254e-01 5.35578392e-02 1.24968290e-01 4.59067188e-02
      1.78526133e-01 2.29533598e-01 2.39735097e-01 7.93166101e-01
      6.88556552e-01 2.06566960e-01 2.34735176e-01 1.87788144e-01
      2.19086170e-01 2.19086170e-01 1.62749723e-01 2.72292823e-01
      3.25499445e-01 3.00461024e-01 6.47088885e-01 1.66484028e-01
      3.10979605e-01 1.91613689e-01 1.41354367e-01 1.94754899e-01
      2.67002702e-01 3.14120799e-01 2.07319736e-01 3.86368603e-01
      2.96698362e-01 1.17299348e-01 6.89996183e-02 2.75998469e-02
      1.08099401e-01 1.05799414e-01 6.66996315e-02 1.03499427e-01
      3.01298320e-01 8.73995125e-01 2.97418237e-01 1.24500655e-01
      2.99723800e-02 5.07224910e-02 1.40639633e-01 4.61113527e-02
      9.68338475e-02 8.76115710e-02 3.43529582e-01 8.57671201e-01
      6.85383379e-01 1.76676616e-01 2.04091951e-01 2.16276541e-01
      1.67538166e-01 1.46215126e-01 1.58399716e-01 2.43691877e-01
      3.56399357e-01 3.86860847e-01 6.66741073e-01 1.80705532e-01
      2.83520728e-01 2.21208498e-01 2.24324107e-01 1.33971334e-01
      1.77589908e-01 2.58595854e-01 2.55480230e-01 4.01914030e-01
      3.81798446e-01 3.18165384e-02 1.20448321e-01 1.04540050e-01
      8.18139538e-02 2.95439288e-02 9.99948308e-02 2.20443159e-01
      1.09085277e-01 8.65864336e-01 9.40985233e-02 4.99898419e-02
      8.82173702e-03 1.02920262e-02 3.08760777e-02 5.58709987e-02
      2.49949209e-02 2.20543407e-02 3.52869481e-02 9.90975082e-01
      2.94263929e-01 5.30639887e-02 5.30639887e-02 7.71839842e-02
      2.00195953e-01 2.05019951e-01 1.25423968e-01 8.92439783e-02
      2.05019951e-01 8.68319809e-01 2.37724036e-01 2.64137834e-02
      7.92413503e-02 1.12258576e-01 1.78293034e-01 3.96206751e-02
      1.69488445e-01 7.92413503e-02 1.45275801e-01 9.13476646e-01
      8.48016590e-02 4.38629277e-03 2.63177566e-02 4.67871241e-02
      4.38629277e-02 5.84839052e-03 5.84839061e-02 4.09387350e-02
      1.31588783e-02 9.91302192e-01</_>
    <_>
      3.41234773e-01 8.91555026e-02 9.68491286e-02 1.33959547e-01
      1.26115069e-01 8.41772780e-02 1.33205265e-01 1.17214598e-01
      1.77255020e-01 8.73150706e-01 6.32275045e-02 3.08426842e-03
      8.17331150e-02 9.09859166e-02 1.38792079e-02 9.25280526e-03
      3.54690850e-02 5.70589676e-02 4.62640263e-02 9.86965895e-01
      3.98781419e-01 3.28111313e-02 5.04786596e-02 3.15491647e-01
      1.23672724e-01 9.33855250e-02 2.04438582e-01 1.23672724e-01
      1.28720582e-01 8.00086796e-01 4.35020953e-01 9.57593247e-02
      4.92476523e-02 1.28591090e-01 3.63885432e-01 6.83995187e-02
      2.32558370e-01 1.47742957e-01 2.18878463e-01 7.22298920e-01
      8.05708170e-02 1.04443645e-02 1.64125729e-02 5.96820842e-03
      1.10411853e-01 1.79046243e-02 1.19364168e-02 1.64125729e-02
      8.65390226e-02 9.86246467e-01 3.56604010e-01 4.42501344e-02
      1.95221171e-01 7.80884698e-02 1.24941558e-01 8.32943693e-02
      1.45765141e-01 2.47280166e-01 2.57691950e-01 8.09517145e-01
      6.07117891e-01 1.83099046e-01 2.31283009e-01 3.34075451e-01
      1.18853770e-01 2.31283009e-01 3.69410366e-01 2.63405651e-01
      2.18433961e-01 3.34075451e-01 7.16807485e-01 2.75229871e-01
      1.90543756e-01 3.20597440e-01 1.45176202e-01 1.63323224e-01
      2.08690777e-01 1.45176202e-01 3.23621929e-01 2.32886806e-01
      3.73906195e-01 9.34765488e-02 1.12651221e-01 6.23176992e-02
      1.39016405e-01 7.43018687e-02 7.66987056e-02 9.82702151e-02
      2.80429631e-01 8.46082568e-01 1.21979840e-01 9.05607864e-02
      4.62044850e-02 2.40263324e-02 5.35972007e-02 2.03299727e-02
      5.54453805e-02 5.72935604e-02 2.42111504e-01 9.51812387e-01
      7.01464415e-01 2.05961898e-01 1.34322971e-01 2.71630913e-01
      1.91037118e-01 1.01488471e-01 2.26856574e-01 1.43277839e-01
      3.19390178e-01 3.91029090e-01 6.85589373e-01 1.89761341e-01
      2.20368013e-01 2.41792679e-01 1.71397343e-01 1.10184006e-01
      2.17307344e-01 2.02004015e-01 3.36673349e-01 3.79522681e-01
      5.03130972e-01 1.59462273e-01 2.28196010e-01 1.92454457e-01
      1.12723328e-01 7.42324367e-02 1.23720728e-01 2.44692102e-01
      1.09973982e-01 7.25828230e-01 7.28921369e-02 8.06466192e-02
      7.75448279e-03 1.08562764e-02 5.27304821e-02 8.06466192e-02
      1.55089656e-02 1.55089656e-02 7.28921369e-02 9.86370206e-01
      3.39658499e-01 4.54472639e-02 4.78392243e-02 1.43517673e-01
      1.65045321e-01 2.08100617e-01 1.14814132e-01 6.21909909e-02
      1.62653357e-01 8.63497972e-01 4.15534168e-01 2.34765075e-02
      4.46053632e-02 1.10339582e-01 1.54944941e-01 7.74724707e-02
      2.13636220e-01 1.05644278e-01 1.24425486e-01 8.42806578e-01
      8.41623917e-02 1.62418652e-02 2.06714645e-02 2.95306630e-02
      3.10071949e-02 1.32887978e-02 6.34909272e-02 6.64439872e-02
      1.32887978e-02 9.90753710e-01</_>
    <_>
      3.32322627e-01 7.74597451e-02 8.94993693e-02 1.21991843e-01
      1.10677503e-01 6.36794567e-02 1.18800618e-01 1.09226942e-01
      1.78273454e-01 8.86870563e-01 1.09461352e-01 1.56373356e-03
      9.06965435e-02 7.19317421e-02 6.25493424e-03 1.09461350e-02
      1.72010697e-02 6.09856099e-02 5.47306761e-02 9.83588398e-01
      3.37805718e-01 2.41289809e-02 3.61934714e-02 2.60592997e-01
      2.36464009e-01 5.06708585e-02 2.36464009e-01 8.44514295e-02
      7.47998357e-02 8.30036938e-01 5.74262500e-01 5.77010177e-02
      8.24300274e-02 1.70355380e-01 2.85757422e-01 1.23645037e-01
      1.86841384e-01 1.20897368e-01 2.06075057e-01 6.64935529e-01
      1.38921157e-01 1.35901133e-02 1.51001252e-02 9.06007551e-03
      8.90907422e-02 1.66101381e-02 1.05700875e-02 9.06007551e-03
      7.39906132e-02 9.83018160e-01 3.49945873e-01 6.23191260e-02
      1.82163596e-01 4.07471210e-02 6.23191260e-02 2.87626740e-02
      5.99222369e-02 2.01338723e-01 3.54739636e-01 8.14942420e-01
      6.66686296e-01 2.05843240e-01 1.65903509e-01 3.56385320e-01
      1.07530050e-01 1.41325206e-01 3.01084131e-01 1.84337229e-01
      3.28734726e-01 3.07228714e-01 6.93518639e-01 2.96349376e-01
      2.10805237e-01 2.53577322e-01 1.13040484e-01 1.00819893e-01
      2.50522166e-01 2.10805237e-01 3.11625123e-01 3.08569968e-01
      2.51816481e-01 3.56740020e-02 4.19694148e-02 3.56740020e-02
      1.09120473e-01 3.98709439e-02 9.23327133e-02 1.30105183e-01
      2.37127185e-01 9.14933205e-01 2.14841306e-01 9.87108722e-02
      4.83876839e-02 1.35485511e-02 4.25811596e-02 1.54840583e-02
      5.41942045e-02 6.77427575e-02 2.55486965e-01 9.30979013e-01
      7.25085497e-01 2.59822309e-01 2.05440879e-01 2.93055385e-01
      1.41995907e-01 1.23868771e-01 1.96377322e-01 1.99398503e-01
      2.80970633e-01 2.93055385e-01 6.70599878e-01 1.81807071e-01
      1.40080869e-01 4.23223019e-01 1.04315534e-01 1.10276423e-01
      3.09966177e-01 1.52002633e-01 2.62279063e-01 3.27848822e-01
      3.51002753e-01 5.21760844e-02 1.66014805e-01 5.69193661e-02
      7.35208467e-02 3.32029611e-02 8.06357637e-02 2.58508772e-01
      2.15819255e-01 8.46675515e-01 1.00200310e-01 7.35846013e-02
      1.09594092e-02 1.09594092e-02 5.79283051e-02 7.67158642e-02
      7.82814901e-03 1.56562980e-02 7.04533458e-02 9.84781146e-01
      2.40086913e-01 1.65577177e-02 2.06971467e-02 7.86491558e-02
      1.82134897e-01 1.67646885e-01 5.79520129e-02 4.76034395e-02
      1.28322318e-01 9.23092782e-01 2.34366864e-01 1.21224243e-02
      5.25305048e-02 1.05061010e-01 1.39407873e-01 2.22244430e-02
      1.81836352e-01 4.84896973e-02 9.09181759e-02 9.31406260e-01
      7.19535425e-02 7.19535444e-03 4.60502692e-02 2.73423474e-02
      2.73423474e-02 5.75628364e-03 4.60502692e-02 5.18065542e-02
      1.87079217e-02 9.92958903e-01</_>
    <_>
      3.34324688e-01 8.05549547e-02 8.73279124e-02 1.05196990e-01
      1.02026671e-01 6.62885159e-02 1.26956910e-01 1.12978682e-01
      1.70476764e-01 8.88986588e-01 8.39501917e-02 4.57910169e-03
      8.24238285e-02 7.32656270e-02 9.15820338e-03 6.10546861e-03
      3.81591804e-02 4.42646481e-02 4.42646481e-02 9.87559557e-01
      4.16000724e-01 2.06851177e-02 6.89503923e-02 1.65480942e-01
      1.14917323e-01 6.20553568e-02 1.56287566e-01 1.01127245e-01
      1.08022287e-01 8.54984879e-01 4.95809346e-01 1.49013743e-01
      8.39895606e-02 1.38176382e-01 2.24875286e-01 4.60587926e-02
      2.00491220e-01 1.13792315e-01 2.54678041e-01 7.31522024e-01
      7.44053945e-02 2.18839385e-02 1.75071508e-02 1.75071508e-02
      5.83571717e-02 2.04250105e-02 2.48017982e-02 2.04250105e-02
      6.56518191e-02 9.92071927e-01 3.80552828e-01 5.16464561e-02
      1.92994639e-01 8.69835019e-02 1.35911718e-01 8.15470368e-02
      1.27757013e-01 2.77259916e-01 3.66961658e-01 7.44796216e-01
      7.50535488e-01 1.91371605e-01 1.73430517e-01 2.36224324e-01
      1.73430517e-01 1.97351962e-01 3.02008301e-01 1.88381419e-01
      1.94361791e-01 2.84067214e-01 7.39353716e-01 2.50426263e-01
      1.69932112e-01 2.38501206e-01 1.34156927e-01 1.37138188e-01
      2.86201447e-01 1.63969576e-01 2.65332580e-01 2.98126519e-01
      3.41283232e-01 9.26663056e-02 7.00647682e-02 6.10241555e-02
      1.15267850e-01 4.74632308e-02 5.87639995e-02 7.91053846e-02
      3.02860618e-01 8.65638912e-01 1.63605303e-01 8.28125626e-02
      8.07927474e-02 1.61585491e-02 6.05945587e-02 3.63567360e-02
      6.66540116e-02 8.68522003e-02 3.00952971e-01 9.23057139e-01
      7.42994606e-01 1.95828035e-01 1.20952606e-01 2.21746445e-01
      1.78549096e-01 8.92745480e-02 2.70703465e-01 1.09433316e-01
      3.05261344e-01 3.57098192e-01 7.19067097e-01 2.07994610e-01
      1.36682168e-01 2.88221121e-01 1.87195152e-01 1.45596236e-01
      1.60452992e-01 1.60452992e-01 2.76335686e-01 3.92218411e-01
      3.15593034e-01 5.67613356e-02 1.38497651e-01 1.15793124e-01
      5.44908792e-02 3.85977067e-02 8.62772316e-02 2.47479424e-01
      1.06711306e-01 8.83206367e-01 8.89399946e-02 4.81150821e-02
      7.29016401e-03 1.16642620e-02 4.81150821e-02 4.22829501e-02
      1.16642620e-02 1.74963921e-02 4.51990142e-02 9.91462290e-01
      2.83162177e-01 3.91362384e-02 7.59703442e-02 1.24315105e-01
      1.49638548e-01 1.54242814e-01 1.19710848e-01 9.20852646e-02
      1.33523628e-01 9.00133491e-01 1.86917216e-01 1.85066536e-02
      3.14613134e-02 4.07146402e-02 6.47732913e-02 3.70133072e-02
      1.83215871e-01 6.84746206e-02 7.95786157e-02 9.54943359e-01
      8.24301541e-02 7.49365008e-03 2.69771405e-02 1.79847609e-02
      1.94834899e-02 5.99492015e-03 7.34377727e-02 1.00414909e-01
      2.69771405e-02 9.87663090e-01</_>
    <_>
      3.55167836e-01 8.12598541e-02 8.12598541e-02 1.19934328e-01
      1.14864640e-01 6.86580539e-02 1.18051298e-01 1.01248905e-01
      1.63678497e-01 8.81691098e-01 1.15413092e-01 5.99548547e-03
      4.19683978e-02 6.29526004e-02 1.04920994e-02 5.99548547e-03
      4.94627543e-02 4.64650132e-02 2.24830713e-02 9.87756252e-01
      3.91117692e-01 2.82473899e-02 6.51862845e-02 2.04250365e-01
      6.95320368e-02 4.78032753e-02 1.17335312e-01 9.12607983e-02
      6.51862845e-02 8.75669062e-01 4.13830578e-01 5.74100241e-02
      4.78416868e-02 1.02859624e-01 2.77481794e-01 7.41546154e-02
      1.26780465e-01 6.93704486e-02 1.55485481e-01 8.27661157e-01
      6.68383688e-02 1.94945242e-02 6.96233008e-03 8.35479610e-03
      5.29137105e-02 2.78493203e-02 9.74726211e-03 1.53171262e-02
      5.15212417e-02 9.94220734e-01 6.32745802e-01 8.41850638e-02
      1.27635419e-01 1.46644950e-01 1.03194594e-01 5.97442389e-02
      1.71085775e-01 2.00957894e-01 3.01436841e-01 6.16451919e-01
      7.50203669e-01 2.46114254e-01 1.77913919e-01 2.66870856e-01
      1.42331123e-01 1.18609279e-01 2.57975161e-01 1.77913919e-01
      2.52044708e-01 2.78731793e-01 7.05498397e-01 1.81413874e-01
      1.46858856e-01 2.30366826e-01 1.26701757e-01 9.21467319e-02
      1.72775120e-01 1.58377200e-01 3.08115631e-01 4.69372422e-01
      1.77211016e-01 4.43027541e-02 6.35648221e-02 3.85241359e-02
      6.16386160e-02 5.58599941e-02 6.35648221e-02 8.28268901e-02
      1.94546878e-01 9.51546133e-01 4.02920574e-01 1.22315176e-01
      6.23567551e-02 5.51617444e-02 1.15120165e-01 4.07717265e-02
      9.11367983e-02 1.15120165e-01 3.38165492e-01 8.15434515e-01
      7.38722980e-01 2.38200456e-01 1.62820563e-01 2.32170075e-01
      1.47744596e-01 2.05033302e-01 2.80413210e-01 1.74881354e-01
      2.38200456e-01 2.95489192e-01 7.62701511e-01 1.68537050e-01
      1.45684570e-01 2.88512558e-01 1.37114882e-01 1.08549282e-01
      2.68516660e-01 1.14262402e-01 2.48520732e-01 3.28504413e-01
      1.97794139e-01 6.66480213e-02 1.56945348e-01 6.23481534e-02
      7.95476437e-02 2.57992353e-02 5.80482781e-02 1.89194396e-01
      1.76294774e-01 9.22322690e-01 9.83909070e-02 4.99763340e-02
      4.68528131e-03 7.80880218e-03 4.68528122e-02 5.93468957e-02
      1.24940835e-02 2.81116888e-02 1.14008509e-01 9.83909070e-01
      4.17195588e-01 8.93990546e-02 7.31446818e-02 1.67961866e-01
      3.60305279e-01 2.14015916e-01 1.19198740e-01 1.00235306e-01
      1.46289364e-01 7.50410259e-01 2.56202877e-01 3.34177688e-02
      7.57469386e-02 1.60405278e-01 1.62633136e-01 4.01013196e-02
      1.78228095e-01 6.90633878e-02 1.22531816e-01 9.06735420e-01
      6.75365403e-02 8.62168614e-03 2.73020063e-02 4.31084335e-02
      2.87389550e-02 5.74779091e-03 5.89148551e-02 4.88562211e-02
      1.14955818e-02 9.92930889e-01</_>
    <_>
      4.59247708e-01 1.19790219e-01 1.02210619e-01 1.26790956e-01
      1.10611491e-01 1.02988474e-01 1.38147682e-01 1.21190369e-01
      1.39392257e-01 8.19862962e-01 8.17471668e-02 1.00391265e-02
      4.87614684e-02 6.02347553e-02 3.29856984e-02 7.17080431e-03
      1.43416086e-02 2.29465738e-02 2.00782530e-02 9.92439330e-01
      4.35179144e-01 5.53406999e-02 9.30729955e-02 3.11920315e-01
      1.98723435e-01 6.03716746e-02 1.25774324e-01 9.55884829e-02
      9.81039703e-02 7.89862752e-01 5.08460402e-01 1.42725736e-01
      1.18938103e-01 1.15964651e-01 2.61663824e-01 2.37876207e-01
      2.02194780e-01 2.05168232e-01 2.23008946e-01 6.60106480e-01
      1.25002250e-01 4.80777845e-02 1.28207430e-02 9.61555727e-03
      8.81426111e-02 7.21166804e-02 2.72440799e-02 3.36544514e-02
      4.32700068e-02 9.82389450e-01 5.33916771e-01 9.52527523e-02
      1.90505505e-01 1.15305968e-01 1.20319270e-01 6.26662895e-02
      9.77594033e-02 1.00266054e-01 1.72958955e-01 7.67035365e-01
      6.95699573e-01 2.57106364e-01 1.36115134e-01 2.75255054e-01
      1.36115134e-01 1.27040789e-01 3.08527619e-01 1.90561175e-01
      2.20808983e-01 3.75072807e-01 6.87490523e-01 2.51138091e-01
      2.38581195e-01 3.10783386e-01 1.69518217e-01 1.72657445e-01
      2.66834229e-01 2.00910479e-01 2.35441968e-01 2.91948050e-01
      5.94752669e-01 1.56653613e-01 1.24791861e-01 7.69992322e-02
      1.11516133e-01 1.16826423e-01 1.43377885e-01 1.56653613e-01
      2.12411672e-01 6.95648253e-01 5.89010656e-01 1.47252664e-01
      5.21047898e-02 4.53085117e-02 7.02281967e-02 6.34319186e-02
      9.28824544e-02 1.11005858e-01 1.01944156e-01 7.65713871e-01
      7.44922519e-01 2.19957426e-01 1.73033178e-01 1.75965950e-01
      1.20243393e-01 1.40772760e-01 2.46352330e-01 1.75965950e-01
      2.78612733e-01 3.63662958e-01 7.05014527e-01 2.93756068e-01
      1.88622311e-01 2.22636178e-01 1.45331949e-01 1.85530141e-01
      2.65926540e-01 2.07175329e-01 2.99940407e-01 2.69018710e-01
      6.12772703e-01 1.58227682e-01 2.44533703e-01 1.89873233e-01
      1.12197816e-01 6.61679432e-02 1.61104560e-01 2.76179254e-01
      1.72612026e-01 5.95511496e-01 1.10143438e-01 7.88865164e-02
      5.95369935e-03 2.97684968e-03 1.48842484e-02 7.88865164e-02
      2.08379477e-02 1.33958235e-02 2.67916471e-02 9.86825645e-01
      6.18246317e-01 1.08645804e-01 3.36284637e-02 1.03472188e-01
      1.31927043e-01 2.58680493e-01 1.31927043e-01 9.05381665e-02
      1.78489536e-01 6.72569275e-01 5.67546785e-01 2.89811119e-02
      6.27924055e-02 1.47320658e-01 1.08679168e-01 6.03773147e-02
      2.22188532e-01 1.25584811e-01 1.01433888e-01 7.48678744e-01
      1.26538455e-01 6.02564076e-03 3.46474349e-02 2.71153841e-02
      1.95833333e-02 7.53205083e-03 5.87499961e-02 6.17628172e-02
      2.71153841e-02 9.86698687e-01</_>
    <_>
      4.73430097e-01 9.66777951e-02 9.51456577e-02 1.20732337e-01
      9.88227874e-02 1.04951330e-01 1.40956536e-01 1.20272696e-01
      1.37432620e-01 8.17854345e-01 1.49134502e-01 4.66045318e-03
      7.45672509e-02 6.99067935e-02 2.17487812e-02 4.66045318e-03
      3.57301384e-02 3.10696866e-02 2.48557497e-02 9.81802106e-01
      6.25707567e-01 4.30648923e-02 6.07974976e-02 2.10258007e-01
      6.83971867e-02 1.16528541e-01 2.33057082e-01 1.49460509e-01
      9.87959355e-02 6.73838913e-01 6.27128005e-01 4.26447056e-02
      4.01361920e-02 1.12883039e-01 1.32951140e-01 1.95663929e-01
      2.05697984e-01 1.10374525e-01 1.05357505e-01 6.84823751e-01
      1.09059982e-01 3.13734189e-02 8.96383449e-03 8.96383449e-03
      5.07950597e-02 4.48191725e-02 2.39035580e-02 2.09156126e-02
      5.67709506e-02 9.89009738e-01 5.59435546e-01 1.09795757e-01
      2.69261032e-01 7.31971711e-02 6.79688007e-02 8.10397267e-02
      1.15024127e-01 1.90835491e-01 1.75150380e-01 7.11058259e-01
      7.06539333e-01 1.96602255e-01 1.81242704e-01 3.37910116e-01
      2.02746078e-01 1.53595507e-01 2.48824731e-01 1.78170800e-01
      2.64184266e-01 2.94903398e-01 7.02559769e-01 2.51571625e-01
      1.74872950e-01 2.88386971e-01 1.90212682e-01 1.96348578e-01
      1.93280637e-01 1.41125545e-01 2.69979298e-01 3.52813840e-01
      5.50478458e-01 9.50826406e-02 5.50478473e-02 7.25630671e-02
      8.25717673e-02 8.25717673e-02 1.07593514e-01 1.55134842e-01
      3.27784896e-01 7.23128498e-01 4.74615961e-01 3.31971824e-01
      1.45237669e-01 7.00253099e-02 9.33670774e-02 1.11521788e-01
      7.26188347e-02 1.45237669e-01 1.32270023e-01 7.57310748e-01
      7.34079301e-01 1.58800840e-01 1.64793313e-01 2.60673076e-01
      1.73782051e-01 1.43819630e-01 2.90635496e-01 1.88763261e-01
      2.69661784e-01 3.11609179e-01 6.87117875e-01 2.54948705e-01
      1.49238259e-01 3.45113486e-01 2.48730451e-01 2.11420879e-01
      2.33184785e-01 1.46129131e-01 2.23857403e-01 2.98476517e-01
      6.16324663e-01 3.20488811e-02 1.23264931e-01 8.87507498e-02
      8.62854496e-02 5.17712720e-02 9.36813504e-02 2.56391048e-01
      1.77501500e-01 6.92748904e-01 9.67762023e-02 5.69271743e-02
      1.85013320e-02 8.53907689e-03 2.41940506e-02 4.26953807e-02
      9.96225607e-03 1.70781538e-02 1.42317936e-02 9.91956055e-01
      5.28895319e-01 4.28834036e-02 5.24130501e-02 6.19426966e-02
      8.57668072e-02 2.38241136e-01 1.52474329e-01 1.14355743e-01
      9.05316323e-02 7.76666105e-01 5.64512551e-01 2.16196291e-02
      5.04458025e-02 8.40763375e-02 1.41728684e-01 7.68697932e-02
      2.76250809e-01 9.36850607e-02 1.12902507e-01 7.39871740e-01
      1.66599587e-01 6.22802181e-03 3.26971151e-02 3.11401095e-02
      1.40130492e-02 1.24560436e-02 8.09642822e-02 6.22802190e-02
      1.55700548e-02 9.79356408e-01</_>
    <_>
      3.46073598e-01 1.08279780e-01 1.03159450e-01 1.19122811e-01
      8.55395198e-02 1.02707662e-01 1.59784198e-01 1.28309280e-01
      1.41712472e-01 8.73918712e-01 9.02824327e-02 9.02824383e-03
      7.52353668e-02 7.67400712e-02 1.65517796e-02 1.20376581e-02
      2.70847306e-02 2.55800243e-02 3.31035592e-02 9.88592684e-01
      2.13585600e-01 3.16423103e-02 5.93293309e-02 1.54256269e-01
      5.33964001e-02 4.54858206e-02 1.28546879e-01 7.31728449e-02
      7.51504898e-02 9.45314050e-01 3.04748148e-01 9.19081718e-02
      8.22336301e-02 6.28845394e-02 1.33024991e-01 1.16094530e-01
      2.17677251e-01 1.45118162e-01 1.47536799e-01 8.75546277e-01
      5.74278049e-02 3.88025716e-02 1.24168228e-02 1.39689259e-02
      9.93345827e-02 5.12193926e-02 2.79378518e-02 2.94899549e-02
      7.91572481e-02 9.87137437e-01 3.56633246e-01 7.13266507e-02
      1.27050593e-01 6.24108203e-02 7.35556111e-02 5.79529032e-02
      7.13266507e-02 1.15905806e-01 1.82774544e-01 8.87125194e-01
      6.76965654e-01 2.51181841e-01 1.47033274e-01 2.78750569e-01
      1.16401337e-01 1.13338143e-01 3.33888054e-01 2.45055437e-01
      2.48118639e-01 3.46140802e-01 7.00212002e-01 2.21942201e-01
      2.59453565e-01 2.56327599e-01 1.53171375e-01 1.90682739e-01
      2.71957338e-01 2.31320038e-01 2.46949777e-01 2.81335175e-01
      4.29189295e-01 2.05026731e-01 2.05026731e-01 8.47443789e-02
      1.20282352e-01 1.53086632e-01 1.53086632e-01 1.17548659e-01
      2.15961486e-01 7.76367903e-01 2.97890604e-01 1.63288176e-01
      4.85451333e-02 5.95781207e-02 9.92968678e-02 5.95781207e-02
      8.38506892e-02 1.41222209e-01 1.25776023e-01 9.06911373e-01
      6.31196678e-01 1.50871396e-01 2.27846593e-01 2.34004617e-01
      1.01607263e-01 1.44713387e-01 3.23295861e-01 1.78582475e-01
      3.66401970e-01 4.12587076e-01 6.68013215e-01 2.71575481e-01
      2.30995238e-01 3.15277278e-01 1.68564081e-01 9.05251577e-02
      2.62210816e-01 2.15387449e-01 2.52846122e-01 3.34006608e-01
      5.77247262e-01 1.52055383e-01 1.74582094e-01 2.16819704e-01
      5.91326468e-02 8.72910470e-02 1.94292977e-01 3.18189949e-01
      1.21081136e-01 6.33564055e-01 7.69791603e-02 1.05257213e-01
      2.19940450e-02 6.28401292e-03 9.42601915e-03 1.38248280e-01
      3.45620699e-02 3.14200632e-02 9.42601915e-03 9.80306029e-01
      4.16370928e-01 7.16051906e-02 3.18245292e-02 1.11385852e-01
      1.03429720e-01 3.52721870e-01 2.20119670e-01 1.40558347e-01
      1.82991043e-01 7.55832613e-01 4.26340044e-01 2.67985165e-02
      8.03955495e-02 1.21811442e-01 9.25766975e-02 7.06506371e-02
      3.09401065e-01 1.26683891e-01 1.29120126e-01 8.08827937e-01
      9.63469595e-02 7.41130440e-03 1.33403484e-02 2.66806968e-02
      1.63048692e-02 8.89356527e-03 8.59711319e-02 6.07726946e-02
      2.96452176e-02 9.88668025e-01</_>
    <_>
      3.01643699e-01 1.09544292e-01 9.88640860e-02 1.00451685e-01
      8.15448314e-02 8.87611881e-02 1.40141651e-01 1.17193632e-01
      1.40430301e-01 8.99735332e-01 6.09652251e-02 0. 3.46393324e-02
      2.90970393e-02 1.24701597e-02 2.77114660e-03 2.90970393e-02
      4.71094921e-02 3.60249057e-02 9.94841635e-01 1.43914714e-01
      1.21373860e-02 3.29443328e-02 8.49617049e-02 3.64121571e-02
      5.37512787e-02 9.36312601e-02 5.89530170e-02 6.93564937e-02
      9.74458694e-01 4.23726946e-01 1.06581621e-01 6.49887919e-02
      8.05861056e-02 1.61172211e-01 1.68970868e-01 2.31360108e-01
      1.63771763e-01 1.35176688e-01 8.03261518e-01 1.07403494e-01
      3.75059843e-02 1.36385392e-02 1.19337216e-02 1.29566118e-01
      5.11445217e-02 4.43252511e-02 3.75059843e-02 1.27861306e-01
      9.73450720e-01 2.49905378e-01 6.24763444e-02 1.67347357e-01
      5.80137484e-02 8.92519206e-02 4.01633643e-02 8.47893208e-02
      1.18258797e-01 2.34286293e-01 9.03675675e-01 6.77774966e-01
      2.41399303e-01 2.10450679e-01 3.00201714e-01 1.79502055e-01
      1.23794518e-01 3.31150323e-01 2.50683904e-01 1.42363697e-01
      3.28055471e-01 6.57842696e-01 3.11442435e-01 2.63772666e-01
      2.89196551e-01 1.58899203e-01 1.55721217e-01 2.92374521e-01
      2.41526783e-01 2.00212985e-01 2.89196551e-01 2.40034580e-01
      1.05278321e-01 1.11595020e-01 3.57946306e-02 5.89558594e-02
      8.63282233e-02 7.58003891e-02 8.42226595e-02 1.66339755e-01
      9.30660367e-01 1.62635535e-01 1.80706143e-01 7.62981474e-02
      3.01176906e-02 6.42510727e-02 3.61412279e-02 9.83844548e-02
      7.42903054e-02 1.38541371e-01 9.45695460e-01 6.56268835e-01
      1.74800590e-01 2.02400669e-01 2.26934090e-01 1.16533719e-01
      1.47200495e-01 2.94400990e-01 1.87067285e-01 3.28134418e-01
      4.26268101e-01 7.47731686e-01 2.13637635e-01 2.64079839e-01
      2.49243900e-01 1.09786004e-01 1.09786004e-01 2.49243900e-01
      2.52211094e-01 2.16604814e-01 2.58145481e-01 4.95935798e-01
      2.01208249e-01 1.55865535e-01 1.95540398e-01 7.65158087e-02
      8.21836516e-02 2.06876084e-01 2.46550947e-01 1.81370810e-01
      7.08479702e-01 5.63953072e-02 1.48820952e-01 9.39921755e-03
      4.69960878e-03 7.83268176e-03 1.42554805e-01 3.28972600e-02
      2.34980434e-02 7.83268176e-03 9.75952089e-01 4.19063598e-01
      9.42893103e-02 8.11935738e-02 1.15242489e-01 8.90510157e-02
      2.40961567e-01 1.57148853e-01 1.33576527e-01 2.30484977e-01
      7.96220839e-01 1.75269544e-01 1.77238863e-02 4.92330194e-02
      8.07421505e-02 7.28648677e-02 3.54477726e-02 1.77238867e-01
      8.27114731e-02 1.33913815e-01 9.47243273e-01 1.14343449e-01
      7.32970843e-03 2.78528910e-02 3.95804234e-02 1.61253586e-02
      8.79564974e-03 5.13079576e-02 4.54441905e-02 1.90572422e-02
      9.89510596e-01</_>
    <_>
      3.09369713e-01 5.47993220e-02 1.14672653e-01 8.04593265e-02
      1.42652199e-01 1.07714012e-01 1.17427118e-01 1.35113671e-01
      1.30619556e-01 8.94765675e-01 8.76998231e-02 4.31310572e-03
      6.32588863e-02 4.45687622e-02 2.58786362e-02 1.29393181e-02
      2.01278273e-02 1.72524229e-02 2.58786362e-02 9.92014349e-01
      2.10699946e-01 3.03894132e-02 6.28047884e-02 1.19531699e-01
      1.15479775e-01 8.10384378e-02 1.29661500e-01 6.28047884e-02
      6.68567121e-02 9.44097817e-01 2.30028838e-01 2.87536047e-02
      8.40489939e-02 1.03955336e-01 2.67629683e-01 7.29899183e-02
      1.30497128e-01 5.30835763e-02 1.15014419e-01 9.04632628e-01
      6.19305670e-02 1.96365211e-02 4.53150459e-03 1.51050161e-03
      2.41680257e-02 5.43780588e-02 4.68255505e-02 5.13570532e-02
      1.07245617e-01 9.87868071e-01 1.14439167e-01 1.02482829e-02
      1.17855258e-01 3.75770405e-02 1.21271357e-01 6.83218893e-03
      4.09931317e-02 3.92850861e-02 7.51540810e-02 9.73586917e-01
      6.75906599e-01 9.87626091e-02 3.05546820e-01 1.75920904e-01
      2.99374163e-01 2.53079176e-01 1.45057589e-01 2.77769834e-01
      2.09870547e-01 3.36410135e-01 6.95552588e-01 1.50805652e-01
      2.15436637e-01 2.06203640e-01 2.89300621e-01 2.98533618e-01
      2.24669635e-01 2.43135631e-01 1.16951317e-01 3.29310298e-01
      5.01261175e-01 7.85760731e-02 1.30056947e-01 7.85760731e-02
      1.05671272e-01 1.05671272e-01 1.02961756e-01 2.35728219e-01
      4.36232686e-01 6.63832366e-01 2.07164451e-01 1.18061468e-01
      1.47019938e-01 6.01445213e-02 1.80433556e-01 4.90066446e-02
      1.64840534e-01 9.80132893e-02 6.23720959e-02 9.17760849e-01
      6.68347478e-01 8.00785050e-02 3.20314020e-01 1.57077059e-01
      3.23393941e-01 2.61795104e-01 1.50917172e-01 2.80274749e-01
      2.15595976e-01 3.14154118e-01 6.89567924e-01 1.44043073e-01
      3.27927858e-01 2.05338001e-01 2.66632915e-01 2.45179698e-01
      1.47107825e-01 2.45179698e-01 1.37913585e-01 3.49381089e-01
      4.51768816e-01 3.57331261e-02 9.18851793e-02 9.18851793e-02
      1.32723033e-01 4.59425896e-02 7.65709803e-02 3.36912334e-01
      2.88417369e-01 7.45290935e-01 5.59189580e-02 4.47351672e-02
      8.38784408e-03 2.79594795e-03 1.11837918e-02 6.57047778e-02
      3.35513763e-02 3.49493511e-02 6.98986975e-03 9.93959486e-01
      3.14312428e-01 4.71468642e-02 4.49017771e-02 3.81665081e-02
      8.98035541e-02 2.02057987e-01 1.34705335e-01 1.10009350e-01
      1.48175865e-01 8.91300261e-01 4.61197734e-01 5.42585552e-02
      6.78231940e-02 8.13878328e-02 1.98043734e-01 1.51923954e-01
      3.25551331e-01 1.95330799e-01 1.73627377e-01 7.32490480e-01
      1.02495611e-01 7.88427796e-03 3.94213870e-02 1.89222656e-02
      3.94213870e-02 7.88427796e-03 8.67270529e-02 9.30344760e-02
      3.94213870e-02 9.83957887e-01</_>
    <_>
      3.23067665e-01 9.43099335e-02 8.96786451e-02 9.73974615e-02
      8.67314562e-02 8.19598213e-02 1.25746578e-01 9.82395113e-02
      1.21115290e-01 9.02680814e-01 7.23751634e-02 2.83824163e-03
      5.67648336e-02 4.82501090e-02 1.56103289e-02 9.93384607e-03
      2.27059331e-02 2.69632954e-02 2.83824168e-02 9.93384600e-01
      2.05894709e-01 2.18649246e-02 3.09753101e-02 1.23901241e-01
      5.46623133e-02 3.82636189e-02 8.38155448e-02 6.55947775e-02
      5.46623133e-02 9.60234642e-01 4.98540729e-01 1.08876713e-01
      1.17472246e-01 1.06011540e-01 1.71910599e-01 2.32079312e-01
      3.06573898e-01 1.34663299e-01 2.14888245e-01 6.87642395e-01
      1.27220213e-01 4.40377668e-02 3.09895389e-02 9.78616998e-03
      7.82893598e-02 4.24067378e-02 5.05618788e-02 2.93585099e-02
      7.33962730e-02 9.81879056e-01 2.43879095e-01 5.12351058e-02
      1.68051139e-01 4.09880839e-02 7.17291459e-02 4.09880839e-02
      5.32845110e-02 8.40255693e-02 1.59853533e-01 9.30429518e-01
      7.26067901e-01 1.95367664e-01 1.48712710e-01 2.47854501e-01
      1.34133026e-01 9.91417989e-02 2.44938567e-01 1.77872062e-01
      2.24527016e-01 4.25726563e-01 7.62753665e-01 1.98725089e-01
      2.01647520e-01 2.74708211e-01 1.84112951e-01 1.31509259e-01
      2.45483935e-01 1.28586829e-01 1.87035382e-01 3.15622211e-01
      3.93205285e-01 1.73623115e-01 1.58303425e-01 8.42582807e-02
      1.20004214e-01 9.95779634e-02 1.48090303e-01 1.09791093e-01
      1.78729683e-01 8.32369626e-01 1.45011738e-01 1.13179892e-01
      2.82949731e-02 1.76843591e-02 5.83583824e-02 2.82949731e-02
      9.54955369e-02 7.42743015e-02 6.01268187e-02 9.70871270e-01
      7.04050601e-01 1.47158116e-01 1.81783557e-01 2.22179890e-01
      9.52199548e-02 1.38501748e-01 2.53919870e-01 1.61585376e-01
      2.01981723e-01 4.90527034e-01 7.37344742e-01 2.40943357e-01
      1.48049533e-01 2.03205243e-01 1.04505554e-01 1.24826074e-01
      1.94496438e-01 1.59661263e-01 3.33837181e-01 3.65769446e-01
      5.28250456e-01 1.25773922e-01 1.81673437e-01 1.64903581e-01
      1.17388986e-01 8.94392282e-02 1.56518653e-01 3.10242325e-01
      1.48133725e-01 6.93154037e-01 4.76990752e-02 1.07322916e-01
      7.45298062e-03 8.94357637e-03 1.63965579e-02 1.17757089e-01
      2.23589409e-02 2.53401343e-02 2.98119220e-03 9.85284030e-01
      2.86333948e-01 7.47887194e-02 3.20523083e-02 5.55573329e-02
      9.40200984e-02 1.64535180e-01 1.04704201e-01 6.41046166e-02
      1.30346045e-01 9.16695952e-01 2.33243495e-01 1.97663978e-02
      5.53459115e-02 8.89487863e-02 8.30188692e-02 2.17430368e-02
      1.58131182e-01 6.91823885e-02 1.08715184e-01 9.40880537e-01
      7.39572197e-02 7.39572151e-03 2.21871641e-02 3.54994647e-02
      5.47283404e-02 7.39572151e-03 5.17700501e-02 6.65614977e-02
      2.07080208e-02 9.91026700e-01</_>
    <_>
      5.07109821e-01 1.34762153e-01 1.16837323e-01 1.31340146e-01
      1.02497458e-01 1.25310883e-01 1.70285910e-01 1.37369409e-01
      1.47798404e-01 7.73212135e-01 1.43949285e-01 9.81472433e-03
      6.87030703e-02 7.85177946e-02 2.29010228e-02 3.27157453e-02
      2.78083850e-02 5.72525561e-02 5.07094078e-02 9.79836583e-01
      6.54035628e-01 6.16509020e-02 1.20621331e-01 1.98355079e-01
      1.23301804e-01 9.64970589e-02 2.33201236e-01 1.66189387e-01
      1.34023696e-01 6.24550462e-01 7.01574445e-01 2.07549110e-01
      9.06200334e-02 1.05236173e-01 2.04625890e-01 2.10472345e-01
      2.74783343e-01 1.72470391e-01 2.01702654e-01 4.61869866e-01
      1.46650776e-01 3.49962078e-02 2.66637783e-02 2.33308058e-02
      1.06655113e-01 6.33264706e-02 1.66648608e-02 2.83302646e-02
      7.66583607e-02 9.76560891e-01 6.26142085e-01 9.33720618e-02
      2.16952741e-01 1.04357012e-01 1.62028000e-01 1.12595722e-01
      1.40058100e-01 1.89490363e-01 1.83997899e-01 6.42619491e-01
      7.61531889e-01 2.27584243e-01 1.31298602e-01 2.18831003e-01
      1.45887345e-01 1.37134105e-01 2.88856924e-01 1.77982554e-01
      2.24666506e-01 3.12198907e-01 7.68106878e-01 2.07444921e-01
      1.31755561e-01 3.27987254e-01 1.31755561e-01 1.00919157e-01
      2.85937607e-01 9.25092250e-02 1.65395275e-01 3.11167389e-01
      6.23717785e-01 2.21319214e-01 1.83953628e-01 1.46588042e-01
      1.55210868e-01 1.43713772e-01 1.81079358e-01 1.37965217e-01
      1.78205073e-01 6.15094960e-01 4.84420866e-01 2.47592881e-01
      1.66856080e-01 6.99719042e-02 8.07368085e-02 1.42635033e-01
      1.53399944e-01 1.83003440e-01 1.39943808e-01 7.53543556e-01
      7.53529072e-01 2.80782700e-01 1.23200573e-01 2.26345241e-01
      9.74144042e-02 1.00279540e-01 2.12019593e-01 1.60447255e-01
      3.40950429e-01 2.83647835e-01 7.52752423e-01 1.93235293e-01
      1.26900792e-01 2.42265135e-01 1.03827916e-01 1.21132568e-01
      2.45149255e-01 1.73046529e-01 2.82642663e-01 3.54745388e-01
      6.05677068e-01 1.41695097e-01 2.61163503e-01 1.91705137e-01
      1.22246750e-01 8.05717185e-02 1.27803415e-01 1.94483474e-01
      1.30581751e-01 6.44573748e-01 1.01686455e-01 9.23000127e-02
      2.65949201e-02 6.25762809e-03 1.40796630e-02 1.14201710e-01
      3.12881395e-02 2.97237337e-02 9.38644260e-03 9.82447624e-01
      5.72072268e-01 1.04513198e-01 8.52607712e-02 1.29266322e-01
      1.10013895e-01 3.38292718e-01 2.00775355e-01 1.51269108e-01
      1.26515985e-01 6.57333016e-01 5.35457015e-01 7.27805644e-02
      7.27805644e-02 6.23833425e-02 5.97840361e-02 1.53359056e-01
      2.78125733e-01 2.23540306e-01 1.61156967e-01 7.20007718e-01
      1.11815318e-01 1.57486368e-02 4.56710458e-02 3.14972736e-02
      1.41737731e-02 2.36229561e-02 9.44918245e-02 7.08688647e-02
      2.51978189e-02 9.84289825e-01</_>
    <_>
      4.91869688e-01 1.13133281e-01 1.45480290e-01 1.28737867e-01
      1.39303476e-01 1.22073412e-01 1.43367171e-01 1.32964119e-01
      1.39140934e-01 7.84618318e-01 1.09211154e-01 1.01930406e-02
      5.09652048e-02 5.24213538e-02 2.03860812e-02 5.82459476e-03
      2.03860812e-02 2.62106769e-02 2.47545280e-02 9.90181088e-01
      5.87770879e-01 9.22510400e-02 9.22510400e-02 2.18766749e-01
      1.29151449e-01 1.15972735e-01 1.58144638e-01 1.66051865e-01
      1.08065501e-01 7.03743637e-01 6.42562091e-01 1.01904117e-01
      9.90734473e-02 1.24549478e-01 2.77405649e-01 2.06638902e-01
      1.95316225e-01 1.35872155e-01 1.78332210e-01 5.85948706e-01
      1.25942826e-01 3.14857066e-02 1.65714249e-02 1.98857095e-02
      1.09371401e-01 4.47428450e-02 2.65142787e-02 3.64571325e-02
      1.02742828e-01 9.77714002e-01 5.80583453e-01 9.09669921e-02
      2.54172474e-01 9.36424881e-02 1.71231985e-01 9.09669921e-02
      1.20397493e-01 1.55178994e-01 1.57854483e-01 6.92954421e-01
      6.70375049e-01 2.20311046e-01 1.66806936e-01 2.54931360e-01
      1.91985339e-01 1.95132628e-01 2.83257037e-01 2.36047536e-01
      2.36047536e-01 3.77676070e-01 6.77323699e-01 2.08894238e-01
      2.21554488e-01 2.59535253e-01 1.99399039e-01 2.31049687e-01
      2.37379804e-01 1.99399039e-01 2.65865386e-01 3.48157048e-01
      6.25748515e-01 1.84043691e-01 3.14289987e-01 1.01931885e-01
      1.47234946e-01 1.35909185e-01 1.10426210e-01 1.13257654e-01
      2.23683864e-01 5.91771245e-01 5.94531178e-01 2.57630199e-01
      2.26488084e-01 1.61372751e-01 2.01008171e-01 9.62574333e-02
      1.47217244e-01 1.18906237e-01 1.07581839e-01 6.36997700e-01
      6.67376637e-01 1.97035000e-01 2.54238725e-01 2.47882739e-01
      2.44704768e-01 1.65255159e-01 2.28814840e-01 2.28814840e-01
      2.82840580e-01 3.43222260e-01 6.84007645e-01 1.63157791e-01
      2.32186079e-01 2.76113182e-01 2.41599023e-01 1.78846031e-01
      2.19635487e-01 2.03947231e-01 3.23177934e-01 3.01214367e-01
      6.28652096e-01 1.30161449e-01 3.01863790e-01 1.68932945e-01
      1.44008413e-01 9.96981263e-02 9.96981263e-02 2.29859576e-01
      8.30817744e-02 6.06496930e-01 1.48297235e-01 8.54321048e-02
      2.25669704e-02 1.12834852e-02 1.45073384e-02 9.83275175e-02
      2.90146768e-02 3.54623832e-02 2.74027493e-02 9.78439391e-01
      6.93571389e-01 4.93645109e-02 5.18327355e-02 6.41738623e-02
      8.63878950e-02 2.56695449e-01 2.07330942e-01 1.25879496e-01
      7.65149891e-02 6.09651685e-01 6.14792168e-01 6.97453246e-02
      1.05909571e-01 1.13659054e-01 1.13659054e-01 8.78274515e-02
      2.53149718e-01 1.34324342e-01 1.47240132e-01 6.84537470e-01
      1.33600533e-01 1.90857910e-02 5.08954413e-02 3.49906161e-02
      3.97620648e-02 1.27238603e-02 6.99812323e-02 6.99812323e-02
      1.74953081e-02 9.82918203e-01</_>
    <_>
      2.82860249e-01 5.96722625e-02 1.07135721e-01 8.09347928e-02
      1.18521459e-01 1.07410073e-01 1.12760000e-01 1.08095959e-01
      8.03860798e-02 9.17581081e-01 8.66501704e-02 2.79516680e-03
      3.21444198e-02 3.49395834e-02 9.78308357e-03 9.78308357e-03
      3.35419998e-02 3.07468344e-02 2.37589180e-02 9.93681788e-01
      1.98325306e-01 8.09491053e-03 6.27355576e-02 1.78088039e-01
      5.46406470e-02 1.05233833e-01 1.07257567e-01 8.90440196e-02
      7.69016519e-02 9.41033363e-01 1.27448753e-01 2.23896466e-02
      2.06673667e-02 2.06673667e-02 1.25726476e-01 7.23357797e-02
      1.05059110e-01 4.30570133e-02 3.96124534e-02 9.73088503e-01
      5.28138317e-02 3.14028189e-02 8.56440514e-03 1.42740086e-03
      5.42412326e-02 6.42330348e-02 2.42658146e-02 2.28384137e-02
      3.14028189e-02 9.93471026e-01 1.61050722e-01 1.70524288e-02
      1.11788146e-01 2.84207147e-02 1.30735293e-01 1.32630002e-02
      1.06104001e-01 1.00419857e-01 7.95779973e-02 9.56830740e-01
      7.04322100e-01 9.02230814e-02 1.83356583e-01 1.60073206e-01
      2.35744178e-01 2.35744178e-01 1.30968988e-01 2.76490092e-01
      1.42610669e-01 4.59846675e-01 6.58015728e-01 1.35128230e-01
      2.46755898e-01 1.35128230e-01 2.08567485e-01 2.55568624e-01
      1.85066923e-01 2.05629915e-01 8.81271064e-02 5.25825083e-01
      2.36880541e-01 1.09329477e-01 1.82215795e-01 4.78316471e-02
      7.97194093e-02 7.28863180e-02 1.63994223e-01 1.00218683e-01
      1.48050338e-01 9.08801258e-01 4.62730706e-01 1.99877769e-01
      1.58806995e-01 8.76176506e-02 1.64283097e-01 1.09522060e-01
      1.88925564e-01 2.10829973e-01 1.20474271e-01 7.61178315e-01
      7.53565192e-01 7.33040124e-02 2.22844183e-01 2.49233633e-01
      2.90283889e-01 2.81487405e-01 1.96454749e-01 1.84726104e-01
      1.49540186e-01 2.37504989e-01 7.39467919e-01 1.34720877e-01
      2.48485163e-01 2.18547195e-01 2.75429338e-01 2.30522379e-01
      2.30522379e-01 1.73640236e-01 1.34720877e-01 3.08361113e-01
      1.57497883e-01 4.99383546e-02 1.65180713e-01 6.72247037e-02
      7.29868263e-02 2.49691773e-02 5.76211773e-02 1.36370122e-01
      4.22555283e-02 9.54590857e-01 9.53185335e-02 9.53185335e-02
      1.84487496e-02 1.38365617e-02 1.84487496e-02 9.07063484e-02
      2.92105190e-02 2.30609365e-02 1.38365617e-02 9.85470653e-01
      2.29856834e-01 2.65219435e-02 4.86235619e-02 8.17759931e-02
      1.61341816e-01 2.23226354e-01 1.25979230e-01 8.39861482e-02
      9.72471237e-02 9.10586715e-01 4.52191651e-01 3.22994031e-02
      1.45347312e-01 1.13047913e-01 2.18020976e-01 1.10356294e-01
      2.26095825e-01 1.93796426e-01 1.66880250e-01 7.64419258e-01
      6.53857142e-02 6.95592677e-03 4.45179306e-02 1.94765944e-02
      1.11294826e-02 4.17355588e-03 3.89531888e-02 3.47796343e-02
      3.19972634e-02 9.94697511e-01</_>
    <_>
      5.26621580e-01 1.27772585e-01 1.03755184e-01 1.42022908e-01
      1.01353437e-01 1.00392744e-01 1.62517756e-01 1.22328639e-01
      1.50028706e-01 7.68877149e-01 1.49352774e-01 9.23831575e-03
      6.00490533e-02 4.15724218e-02 2.00163499e-02 2.77149472e-02
      3.07943858e-02 2.30957903e-02 4.00326997e-02 9.83880639e-01
      6.73126578e-01 6.07332252e-02 6.83248788e-02 1.99913532e-01
      9.10998359e-02 8.85692835e-02 1.64485812e-01 1.61955267e-01
      1.26527548e-01 6.42759979e-01 6.70770526e-01 8.83961171e-02
      6.49971440e-02 1.09195203e-01 1.37793943e-01 1.48193479e-01
      2.23590165e-01 1.53393254e-01 1.11795083e-01 6.31772220e-01
      1.34800866e-01 2.66466830e-02 1.25396159e-02 1.56745203e-02
      6.11306280e-02 5.48608191e-02 3.44839431e-02 3.60513963e-02
      5.01584634e-02 9.84359860e-01 6.23541892e-01 1.55885473e-01
      2.72799581e-01 1.41967133e-01 1.64236486e-01 5.01060449e-02
      1.36399791e-01 1.28048778e-01 2.14342520e-01 6.17974579e-01
      6.79131150e-01 2.20419750e-01 1.42974973e-01 3.15736413e-01
      1.42974973e-01 8.63807127e-02 3.69352013e-01 1.54889554e-01
      1.84676006e-01 3.84245247e-01 7.21975625e-01 3.40275407e-01
      1.56822577e-01 3.07727337e-01 9.76442471e-02 1.33151248e-01
      2.27836579e-01 1.39069080e-01 2.60384649e-01 2.78138161e-01
      6.85910881e-01 9.76202786e-02 7.96375945e-02 7.19307289e-02
      1.33585632e-01 9.76202786e-02 9.76202786e-02 1.64413095e-01
      2.77447104e-01 6.06273293e-01 6.39815748e-01 2.39930913e-01
      1.27963156e-01 1.22631356e-01 1.11967757e-01 1.09301858e-01
      1.49290338e-01 1.46624446e-01 1.01304159e-01 6.50479376e-01
      7.14314938e-01 2.60022610e-01 1.85303465e-01 2.54045069e-01
      1.22539386e-01 1.07595555e-01 2.71977663e-01 1.34494454e-01
      3.25775445e-01 3.13820362e-01 7.31475830e-01 2.17063963e-01
      1.57594383e-01 2.88427472e-01 1.72461778e-01 1.04071766e-01
      2.91400939e-01 1.81382224e-01 1.96249619e-01 3.36003125e-01
      6.07920170e-01 1.13629937e-01 1.50559679e-01 1.64763421e-01
      1.24992937e-01 9.65854526e-02 1.36355937e-01 3.01119357e-01
      2.52826631e-01 6.07920170e-01 9.93487015e-02 9.15870816e-02
      1.55232344e-02 1.55232344e-02 3.72557640e-02 8.07208195e-02
      2.48371754e-02 2.32848525e-02 2.32848525e-02 9.85725403e-01
      7.05125034e-01 1.30264059e-01 1.01945788e-01 1.75573304e-01
      1.24600403e-01 3.03005517e-01 2.15218887e-01 1.24600403e-01
      1.72741473e-01 4.95569795e-01 6.76264822e-01 7.62704685e-02
      6.61010742e-02 1.47456244e-01 9.15245637e-02 9.40669179e-02
      2.49150202e-01 1.06778659e-01 1.49998590e-01 6.30502582e-01
      1.58972934e-01 1.41659053e-02 4.87936735e-02 3.77757475e-02
      1.73138846e-02 1.57398954e-02 8.02734643e-02 4.09237258e-02
      2.20358539e-02 9.80595469e-01</_>
    <_>
      2.69025773e-01 5.83116747e-02 1.10751212e-01 8.05711672e-02
      1.06244691e-01 9.02670175e-02 1.16486788e-01 1.12663068e-01
      1.00372553e-01 9.21788752e-01 8.54638219e-02 8.69123638e-03
      4.78017963e-02 5.06988764e-02 1.59339327e-02 1.30368536e-02
      2.75222473e-02 3.76620218e-02 2.46251691e-02 9.92249429e-01
      2.34854892e-01 1.50824245e-02 4.30926383e-02 1.61597401e-01
      1.27123281e-01 1.05576970e-01 1.74525186e-01 8.40306506e-02
      7.32574910e-02 9.20027852e-01 1.84577167e-01 1.53814303e-02
      5.76803647e-03 3.84535752e-02 1.46123588e-01 1.32664829e-01
      1.07670009e-01 6.34483993e-02 8.65205452e-02 9.49803293e-01
      1.40274182e-01 3.23709659e-02 1.54147446e-02 9.24884714e-03
      4.16198112e-02 4.62442338e-02 4.16198112e-02 2.62050666e-02
      4.93271835e-02 9.85002220e-01 3.27266425e-01 6.92753792e-02
      2.48435825e-01 5.49425408e-02 1.05107471e-01 4.29985076e-02
      1.12273887e-01 1.45717174e-01 1.81549266e-01 8.62358987e-01
      7.04131484e-01 1.31641969e-01 2.96959788e-01 2.17362329e-01
      2.66345382e-01 1.92870796e-01 2.14300886e-01 3.03082675e-01
      1.31641969e-01 2.96959788e-01 6.23700678e-01 1.38242945e-01
      3.37569982e-01 2.44336352e-01 2.79700816e-01 2.76485890e-01
      2.02541977e-01 3.05420458e-01 1.67177513e-01 3.18280250e-01
      2.12906227e-01 4.14986722e-02 1.01040244e-01 3.24772224e-02
      5.95415719e-02 2.16514803e-02 3.42815109e-02 4.69115414e-02
      1.13670275e-01 9.59882319e-01 3.09234411e-01 1.59302577e-01
      1.17134243e-01 8.43366534e-02 5.15390672e-02 6.09098077e-02
      1.03078134e-01 1.61645263e-01 1.75701365e-01 8.85534883e-01
      7.02660263e-01 1.10946357e-01 2.58874834e-01 2.46547461e-01
      2.49629304e-01 2.03401655e-01 2.68120348e-01 2.58874834e-01
      1.63337693e-01 3.11266184e-01 6.16591394e-01 1.11817092e-01
      3.48230362e-01 2.36413285e-01 3.29061717e-01 2.49192372e-01
      1.69323027e-01 2.71555781e-01 2.01270759e-01 3.41840833e-01
      1.07280701e-01 3.16566005e-02 1.38937294e-01 2.11043991e-02
      4.74849008e-02 1.40696000e-02 5.80370985e-02 1.16074197e-01
      7.73828030e-02 9.70802426e-01 1.17582679e-01 1.04696900e-01
      1.28857726e-02 1.12750512e-02 3.06037106e-02 9.18111280e-02
      3.22144330e-02 3.22144330e-02 3.54358740e-02 9.80929434e-01
      1.97161451e-01 2.65409630e-02 2.27493979e-02 2.84367464e-02
      7.01439753e-02 1.27017468e-01 1.30809039e-01 6.06650598e-02
      8.91018063e-02 9.53578889e-01 1.53244823e-01 1.51352910e-02
      3.78382280e-02 4.72977832e-02 9.83793885e-02 3.21624950e-02
      2.27029368e-01 4.35139611e-02 1.00271299e-01 9.47847605e-01
      9.51894149e-02 4.46200371e-03 3.12340260e-02 2.52846889e-02
      1.93353500e-02 8.92400742e-03 6.69300556e-02 7.43667334e-02
      2.37973537e-02 9.89077508e-01</_>
    <_>
      5.00897288e-01 9.31165293e-02 9.56503153e-02 1.25105545e-01
      1.01984777e-01 1.04518555e-01 1.75939575e-01 1.43317118e-01
      1.52818799e-01 7.87056386e-01 1.35746449e-01 1.50829386e-02
      5.27902879e-02 4.37405221e-02 1.80995278e-02 9.04976390e-03
      2.41327025e-02 3.61990556e-02 3.61990556e-02 9.86424208e-01
      5.25044084e-01 2.32778173e-02 4.39692102e-02 1.73290417e-01
      1.34494051e-01 7.50062987e-02 2.74160951e-01 1.75876841e-01
      1.73290417e-01 7.29371607e-01 6.14688933e-01 3.39920148e-02
      7.36493617e-02 1.30302727e-01 1.64294735e-01 1.67127401e-01
      2.91764796e-01 2.06784755e-01 2.91764796e-01 5.75031579e-01
      1.25796169e-01 2.60796957e-02 9.20459814e-03 1.53409969e-02
      4.60229889e-02 5.82957864e-02 2.76137944e-02 3.37501913e-02
      5.21593913e-02 9.86426115e-01 5.78327000e-01 1.05854489e-01
      2.06545353e-01 5.16363382e-02 5.93817867e-02 9.81090441e-02
      1.47163555e-01 1.72981724e-01 1.91054448e-01 7.12581456e-01
      6.94858849e-01 2.00264990e-01 1.66887492e-01 3.70186806e-01
      1.69921815e-01 1.48681581e-01 3.09500456e-01 1.82059079e-01
      1.63853183e-01 3.24672043e-01 7.01606095e-01 2.15645149e-01
      2.12607905e-01 3.06762815e-01 1.33639246e-01 1.30602002e-01
      3.09800088e-01 1.39713764e-01 2.64241248e-01 3.18911850e-01
      6.22053087e-01 7.99425617e-02 1.19913846e-01 5.99569231e-02
      9.99282002e-02 7.24479482e-02 9.99282002e-02 1.74874350e-01
      2.24838451e-01 6.94500983e-01 7.13387549e-01 1.87594503e-01
      8.45496356e-02 6.86965808e-02 6.60544038e-02 1.37393162e-01
      1.90236688e-01 1.98163211e-01 1.69099271e-01 5.62783539e-01
      6.62173986e-01 2.08111823e-01 1.89192563e-01 3.37393403e-01
      2.04958603e-01 1.57660469e-01 3.15320939e-01 2.11265028e-01
      2.23877862e-01 3.27933758e-01 6.79771602e-01 1.93781048e-01
      2.03008711e-01 3.04513067e-01 1.44566804e-01 1.23035580e-01
      2.89133608e-01 1.72249809e-01 3.44499618e-01 3.13740730e-01
      6.77090764e-01 6.46078959e-02 1.05956949e-01 1.16294213e-01
      1.60227582e-01 6.71922117e-02 1.21462844e-01 2.37757057e-01
      1.52474642e-01 6.22820139e-01 1.23255849e-01 8.91983062e-02
      1.78396627e-02 9.73072462e-03 1.62178744e-02 1.02172606e-01
      6.48714975e-02 4.21664715e-02 1.45960869e-02 9.79559600e-01
      6.04646504e-01 5.91209903e-02 4.03097682e-02 9.67434421e-02
      1.37053207e-01 2.84855694e-01 2.63357133e-01 1.93486884e-01
      1.04805395e-01 6.34207010e-01 6.83098018e-01 4.37571667e-02
      5.59119359e-02 1.06961966e-01 1.09392919e-01 6.07738458e-02
      2.06631064e-01 1.45857230e-01 1.26409590e-01 6.49064660e-01
      1.40013561e-01 1.50552215e-02 2.86049210e-02 1.20441774e-02
      3.61325331e-02 1.05386553e-02 4.66711856e-02 4.06490974e-02
      3.91435772e-02 9.86117005e-01</_>
    <_>
      3.59042734e-01 5.35326265e-02 1.08216494e-01 8.31770375e-02
      1.24765553e-01 1.10806778e-01 1.16562977e-01 1.26060694e-01
      1.06345728e-01 8.83720040e-01 1.06264815e-01 1.43601105e-03
      2.72842105e-02 3.44642662e-02 5.74404420e-03 5.74404420e-03
      3.30282524e-02 4.45163436e-02 4.30803299e-02 9.90847647e-01
      4.42355186e-01 2.18747072e-02 6.80546463e-02 2.23608121e-01
      8.74988288e-02 1.02081969e-01 1.55553475e-01 1.45831376e-01
      1.21526152e-01 8.19086254e-01 3.09924483e-01 2.05097087e-02
      4.55771312e-02 6.38079792e-02 1.93702802e-01 9.79908258e-02
      1.68635383e-01 1.09385110e-01 1.54962242e-01 8.86475146e-01
      1.16178021e-01 2.86673028e-02 1.50880544e-02 1.50880544e-02
      5.43169975e-02 5.73346056e-02 2.86673028e-02 2.41408870e-02
      3.01761087e-02 9.88267541e-01 2.47233316e-01 1.00501347e-02
      1.14571534e-01 3.41704562e-02 1.02511376e-01 2.01002695e-02
      7.63810277e-02 9.04512107e-02 1.82912454e-01 9.30642486e-01
      6.88106656e-01 1.08173974e-01 3.57575089e-01 1.17188476e-01
      2.76444614e-01 2.34376952e-01 1.29207805e-01 2.76444614e-01
      1.71275467e-01 3.45555753e-01 6.99173450e-01 1.29032016e-01
      2.01049879e-01 1.53037965e-01 2.91072220e-01 3.09076667e-01
      1.86046153e-01 2.13052854e-01 1.26031265e-01 3.93097520e-01
      4.34148580e-01 1.01136886e-01 1.55405462e-01 8.38696137e-02
      1.30737931e-01 8.63363668e-02 1.03603639e-01 1.28271177e-01
      1.65272474e-01 8.31295907e-01 3.92678529e-01 1.42345965e-01
      1.44800201e-01 7.60814622e-02 1.12895079e-01 6.87187463e-02
      1.05532356e-01 1.93885028e-01 1.25166282e-01 8.46713066e-01
      7.26445258e-01 1.10610999e-01 2.00295597e-01 1.79369196e-01
      3.40801477e-01 3.07917118e-01 1.61432281e-01 2.00295597e-01
      1.91327140e-01 2.72043288e-01 7.45575786e-01 1.28648371e-01
      3.42087716e-01 1.46191329e-01 2.28058487e-01 2.30982304e-01
      1.05257764e-01 2.39753783e-01 1.72505781e-01 2.92382658e-01
      2.95073777e-01 3.63167711e-02 1.58885866e-01 9.53315273e-02
      8.17127377e-02 4.76657636e-02 8.39825347e-02 2.61026800e-01
      9.76013243e-02 8.85221303e-01 1.31341934e-01 4.52399999e-02
      7.29677454e-03 5.83741954e-03 2.62683872e-02 5.10774218e-02
      1.60529036e-02 2.62683872e-02 1.60529036e-02 9.87983227e-01
      3.97765875e-01 2.47199126e-02 1.34835895e-02 6.29234165e-02
      9.43851247e-02 2.11242899e-01 2.15737432e-01 6.51706830e-02
      8.53960663e-02 8.51713359e-01 4.21589315e-01 2.24515013e-02
      6.23652823e-02 1.19741343e-01 1.74622789e-01 1.27225175e-01
      3.21804851e-01 1.07268289e-01 9.23006162e-02 7.95781016e-01
      5.64371161e-02 4.12954483e-03 2.75303014e-02 2.75303014e-02
      1.23886354e-02 8.25908966e-03 5.36840856e-02 3.85424197e-02
      1.51416650e-02 9.95220363e-01</_>
    <_>
      4.63420868e-01 1.14639103e-01 1.33934796e-01 1.30853966e-01
      1.30691826e-01 1.17071331e-01 1.67823866e-01 1.41393632e-01
      1.35231987e-01 7.99879313e-01 1.45085901e-01 2.44526789e-02
      1.12482324e-01 9.61805433e-02 3.58639285e-02 1.46716079e-02
      2.11923234e-02 2.93432157e-02 1.14112506e-02 9.76477027e-01
      5.60220659e-01 6.25246242e-02 6.00236431e-02 2.47597516e-01
      1.12544328e-01 7.75305331e-02 1.75068960e-01 1.07542358e-01
      1.10043339e-01 7.37790585e-01 6.02940857e-01 6.92740530e-02
      5.64455241e-02 7.18397573e-02 1.38548106e-01 1.77033693e-01
      1.92427933e-01 1.56508043e-01 1.43679515e-01 7.00437665e-01
      1.58496425e-01 5.45364060e-02 1.36341015e-02 1.19298389e-02
      1.02255762e-01 6.81705102e-02 3.57895158e-02 3.06767281e-02
      8.52131322e-02 9.73133981e-01 6.53948307e-01 1.12183601e-01
      2.70882368e-01 1.20392159e-01 1.72379687e-01 6.29322678e-02
      1.12183601e-01 1.75115868e-01 1.80588245e-01 6.01960778e-01
      6.62554801e-01 1.84750855e-01 2.26160526e-01 2.67570198e-01
      2.48458043e-01 1.81565493e-01 3.47204179e-01 2.35716611e-01
      2.26160526e-01 2.86682367e-01 6.25569820e-01 2.05265105e-01
      2.80203164e-01 2.76944965e-01 2.02006921e-01 2.18297809e-01
      3.51883024e-01 2.54137754e-01 2.47621387e-01 2.70428628e-01
      5.19413531e-01 1.82854772e-01 1.37803584e-01 6.36016577e-02
      9.27524194e-02 1.21903181e-01 1.43103734e-01 1.72254488e-01
      2.04055324e-01 7.47319460e-01 5.94344616e-01 2.29444668e-01
      1.82449982e-01 1.27162099e-01 1.46512866e-01 8.84605944e-02
      1.57570437e-01 1.52041644e-01 1.40984073e-01 6.68983221e-01
      6.76569104e-01 2.26571977e-01 2.73774475e-01 2.20278308e-01
      1.82516322e-01 1.41607493e-01 2.70627648e-01 2.23425150e-01
      2.89508641e-01 3.27270627e-01 6.08917058e-01 2.40961820e-01
      3.06086630e-01 3.32136571e-01 2.50730544e-01 2.08399415e-01
      3.06086630e-01 1.88861966e-01 1.66068286e-01 3.22367847e-01
      5.61155200e-01 7.94556066e-02 1.46496281e-01 6.70406669e-02
      1.01802498e-01 5.95917031e-02 1.19183406e-01 2.35883832e-01
      1.19183406e-01 7.44896293e-01 1.14189237e-01 9.81062427e-02
      2.73410846e-02 9.64979455e-03 2.41244864e-02 1.02931142e-01
      3.85991782e-02 2.89493836e-02 2.25161873e-02 9.81062472e-01
      5.43440819e-01 8.40372443e-02 7.56335184e-02 1.34459585e-01
      1.76478207e-01 3.10937792e-01 2.15695590e-01 1.54068276e-01
      1.54068276e-01 6.72297955e-01 4.70458448e-01 4.75744493e-02
      7.66477287e-02 1.74439654e-01 1.82368726e-01 8.72198269e-02
      3.11876953e-01 1.42723352e-01 1.34794280e-01 7.50619113e-01
      1.47263169e-01 1.07379388e-02 2.45438609e-02 1.84078962e-02
      1.68739036e-02 1.07379388e-02 6.13596514e-02 6.90296069e-02
      3.83497812e-02 9.83288407e-01</_>
    <_>
      3.73281628e-01 9.59696472e-02 9.91039649e-02 1.09253161e-01
      1.06566608e-01 8.76114815e-02 1.38506740e-01 1.21193402e-01
      1.49103701e-01 8.68652225e-01 1.04742549e-01 1.34668993e-02
      6.73344955e-02 5.23712747e-02 1.49632208e-02 1.04742544e-02
      2.84301192e-02 3.14227641e-02 3.44154090e-02 9.89068925e-01
      3.36999774e-01 3.95103209e-02 4.64827269e-02 1.85930908e-01
      9.52895954e-02 6.04275465e-02 2.13820547e-01 1.41772330e-01
      9.99378636e-02 8.71551156e-01 5.26473880e-01 9.38270241e-02
      2.86693685e-02 8.60081017e-02 1.45953149e-01 1.51165754e-01
      2.58024305e-01 1.43346846e-01 1.74622521e-01 7.37584651e-01
      8.58823732e-02 4.52834330e-02 1.56149771e-02 9.36898589e-03
      6.40214086e-02 6.71444014e-02 2.02994701e-02 3.12299542e-02
      7.96363801e-02 9.86866534e-01 5.98143518e-01 1.17392652e-01
      2.29195178e-01 1.45343289e-01 1.28572911e-01 5.86963259e-02
      1.90064296e-01 1.62113667e-01 2.43170500e-01 6.42864525e-01
      7.88897693e-01 2.60138303e-01 1.47034705e-01 1.83793366e-01
      1.61172643e-01 1.01793252e-01 1.83793366e-01 1.49862289e-01
      2.99724579e-01 2.68621087e-01 6.74842477e-01 1.36752218e-01
      1.69453830e-01 3.21070433e-01 1.72426715e-01 1.24860719e-01
      2.85395920e-01 1.48643717e-01 1.81345329e-01 4.60795522e-01
      3.36782813e-01 1.07158169e-01 1.59643799e-01 5.02987318e-02
      1.07158169e-01 3.93642262e-02 4.15511280e-02 8.31022561e-02
      1.46522388e-01 8.96629572e-01 2.25004524e-01 1.15656532e-01
      8.62166882e-02 4.83654588e-02 8.62166882e-02 7.57024586e-02
      7.78053030e-02 6.93939179e-02 1.74536228e-01 9.33663666e-01
      7.60948241e-01 1.87264606e-01 2.14016691e-01 1.84292153e-01
      1.96181968e-01 1.66457430e-01 2.28878960e-01 1.87264606e-01
      2.49686137e-01 3.00217867e-01 6.95490539e-01 1.92175016e-01
      1.86074227e-01 2.95888513e-01 1.86074227e-01 1.28116682e-01
      2.50132561e-01 1.61671042e-01 2.68434942e-01 3.81299645e-01
      3.67041826e-01 1.05924822e-01 1.52728811e-01 9.11446139e-02
      1.25631765e-01 6.15842007e-02 8.37545097e-02 2.68507123e-01
      1.18241668e-01 8.42471838e-01 1.37419105e-01 1.00994766e-01
      9.93391126e-03 1.32452147e-02 2.15234738e-02 1.00994766e-01
      3.47686894e-02 3.97356451e-02 5.46365120e-02 9.76834595e-01
      4.70443249e-01 7.47174621e-02 1.07925221e-01 1.21761784e-01
      1.79875359e-01 2.43523568e-01 1.68806106e-01 1.74340740e-01
      2.04781175e-01 7.44407296e-01 2.26415113e-01 1.92239247e-02
      4.91278060e-02 9.39836279e-02 1.04663588e-01 4.27198336e-02
      2.09327176e-01 1.19615525e-01 1.36703461e-01 9.20612395e-01
      8.18944573e-02 2.92480201e-03 1.46240098e-02 2.19360143e-02
      1.46240098e-02 1.16992081e-02 6.87328503e-02 8.04320574e-02
      2.92480197e-02 9.90045488e-01</_>
    <_>
      4.24814761e-01 1.15370080e-01 1.26432970e-01 1.52667806e-01
      1.24536470e-01 1.03516988e-01 1.46978319e-01 1.19479150e-01
      1.33070692e-01 8.28926146e-01 8.91742334e-02 7.30936369e-03
      6.28605261e-02 1.02331087e-01 2.19280906e-02 1.02331089e-02
      8.77123605e-03 1.02331089e-02 1.46187274e-02 9.88225937e-01
      4.39063042e-01 6.79502338e-02 1.12379231e-01 3.60658914e-01
      1.88169867e-01 8.88579935e-02 1.35900468e-01 1.01925343e-01
      9.66984034e-02 7.60519922e-01 5.30871987e-01 5.65904155e-02
      7.27591068e-02 1.29349515e-01 2.72172958e-01 1.67076468e-01
      1.69771239e-01 1.67076468e-01 1.42823428e-01 7.16811895e-01
      1.21330835e-01 4.54990640e-02 2.57828012e-02 1.06164478e-02
      6.52153194e-02 4.09491546e-02 2.88160723e-02 1.36497188e-02
      2.57828012e-02 9.87329662e-01 4.37084973e-01 7.74264783e-02
      2.89724886e-01 1.39867187e-01 1.94815010e-01 4.49573100e-02
      6.49383366e-02 1.02402762e-01 9.99051332e-02 7.96743453e-01
      6.25308335e-01 2.58418232e-01 1.81849867e-01 2.87131369e-01
      1.53136730e-01 1.69088483e-01 3.06273460e-01 1.91420913e-01
      3.41367304e-01 3.57319057e-01 6.72929347e-01 2.57851422e-01
      2.29550660e-01 2.35839725e-01 1.25781178e-01 2.04394430e-01
      2.64140487e-01 2.10683480e-01 2.76718616e-01 3.52187335e-01
      6.14280760e-01 1.61946744e-01 1.98245153e-01 1.36817068e-01
      1.45193636e-01 1.36817068e-01 1.42401442e-01 1.34024888e-01
      1.92660779e-01 6.50579154e-01 4.59261537e-01 1.13606803e-01
      1.03938140e-01 6.04291521e-02 1.23275466e-01 8.46008137e-02
      1.54698625e-01 1.47447124e-01 1.01520970e-01 8.26670766e-01
      6.02059901e-01 3.05911541e-01 2.73367763e-01 3.12420279e-01
      1.59464523e-01 1.65973276e-01 2.27806464e-01 2.27806464e-01
      3.48218441e-01 3.05911541e-01 7.05322623e-01 2.02818096e-01
      2.11899504e-01 3.20876390e-01 1.54383928e-01 8.77869353e-02
      2.69415081e-01 1.78601012e-01 2.69415081e-01 3.23903531e-01
      5.44866443e-01 1.85366943e-01 2.24687189e-01 1.48855269e-01
      1.65706813e-01 9.83006507e-02 1.12343594e-01 2.30304375e-01
      1.26386553e-01 6.90913141e-01 1.31290913e-01 1.00494280e-01
      1.29670035e-02 6.48350175e-03 1.45878792e-02 9.07690227e-02
      4.37636375e-02 5.51097654e-02 2.43131313e-02 9.79008794e-01
      5.77261209e-01 8.20875987e-02 6.35516942e-02 1.72119156e-01
      1.08567469e-01 2.22430915e-01 2.43614808e-01 9.79755223e-02
      1.21807404e-01 6.93772614e-01 4.70743030e-01 4.73372899e-02
      8.15253332e-02 1.78829759e-01 1.70940205e-01 9.46745798e-02
      2.76134193e-01 1.18343219e-01 1.65680513e-01 7.62656331e-01
      1.49057299e-01 1.69034041e-02 1.99767519e-02 2.45867707e-02
      2.15134248e-02 2.15134248e-02 7.06869662e-02 5.37835620e-02
      2.15134248e-02 9.83470798e-01</_>
    <_>
      3.48253846e-01 6.00094385e-02 9.79774967e-02 6.74039721e-02
      1.20587692e-01 9.82619002e-02 9.48490426e-02 1.43766686e-01
      1.27271205e-01 8.89334202e-01 8.23910162e-02 1.42053480e-03
      5.39803207e-02 3.26723009e-02 2.13080216e-02 7.10267387e-03
      1.84669532e-02 4.11955081e-02 2.69901603e-02 9.92953837e-01
      2.67760456e-01 2.55009960e-02 4.67518270e-02 1.59381226e-01
      1.23254813e-01 8.71284008e-02 1.04129069e-01 9.98788998e-02
      7.65029863e-02 9.22286034e-01 3.44984204e-01 3.47025506e-02
      4.08265330e-02 3.26612256e-02 1.32686228e-01 5.71571440e-02
      7.75704086e-02 1.00025006e-01 1.06148981e-01 9.10431683e-01
      1.10772349e-01 8.74518510e-03 1.02027161e-02 8.74518510e-03
      4.80985194e-02 2.76930872e-02 2.47780252e-02 2.04054322e-02
      6.26738295e-02 9.89663482e-01 4.40896422e-01 5.57176806e-02
      1.50195479e-01 5.32951728e-02 7.99427629e-02 5.08726649e-02
      6.78302199e-02 2.32560754e-01 2.42250785e-01 8.06695104e-01
      7.17765510e-01 1.13646202e-01 3.05050343e-01 1.46543786e-01
      2.15329647e-01 2.81124830e-01 1.37571722e-01 3.37947935e-01
      1.76450685e-01 2.60189980e-01 7.11548150e-01 1.16171129e-01
      2.00395197e-01 1.13266848e-01 2.17820868e-01 2.75906444e-01
      1.19075410e-01 2.61385053e-01 1.53926745e-01 4.44354564e-01
      2.81521976e-01 3.81007195e-02 8.25515613e-02 3.81007195e-02
      9.73685086e-02 6.35012016e-02 6.13844953e-02 1.20652281e-01
      2.07437262e-01 9.14417267e-01 4.83235151e-01 1.22856393e-01
      1.31046817e-01 4.91425581e-02 1.85649663e-01 1.55618101e-01
      1.22856393e-01 2.04760656e-01 2.62093633e-01 7.39868522e-01
      7.05193400e-01 2.32993424e-01 2.54739463e-01 2.01927632e-01
      2.67165780e-01 2.60952622e-01 1.27369732e-01 2.79592097e-01
      2.20567107e-01 2.45419741e-01 6.95105016e-01 1.90692514e-01
      2.82963097e-01 1.38405859e-01 2.46054858e-01 2.33752117e-01
      1.53784290e-01 3.22947025e-01 1.78389773e-01 3.26022685e-01
      1.80843890e-01 2.07216945e-02 5.65137155e-02 2.26054862e-02
      4.89785522e-02 3.01406477e-02 1.07376054e-01 1.88379049e-01
      8.85381550e-02 9.51314211e-01 1.09836042e-01 2.99552828e-02
      1.14115365e-02 1.28379781e-02 3.99403796e-02 2.99552828e-02
      1.56908631e-02 9.98509489e-03 3.28081660e-02 9.91377234e-01
      3.73817950e-01 4.70070466e-02 4.25301865e-02 5.81992008e-02
      1.65643871e-01 1.36544272e-01 7.83450752e-02 7.83450752e-02
      1.56690150e-01 8.77464890e-01 4.94972348e-01 7.14665949e-02
      8.20542425e-02 1.21757902e-01 2.11752877e-01 1.03229530e-01
      2.67338008e-01 1.19110994e-01 1.61461562e-01 7.49075830e-01
      9.41206887e-02 7.46989576e-03 2.98795830e-02 7.46989576e-03
      1.34458123e-02 5.97591652e-03 9.86026227e-02 8.81447718e-02
      1.34458123e-02 9.86026227e-01</_>
    <_>
      2.47893855e-01 4.99249175e-02 1.13961950e-01 7.88148046e-02
      1.18621603e-01 8.54714587e-02 7.60190114e-02 1.17290273e-01
      9.83853713e-02 9.30733621e-01 7.74248540e-02 1.19115161e-02
      8.33806098e-02 5.65797016e-02 3.27566676e-02 1.04225762e-02
      1.63783338e-02 3.27566676e-02 2.82898508e-02 9.90144789e-01
      1.15433626e-01 1.30328285e-02 5.21313138e-02 1.97354272e-01
      1.43361121e-01 3.53748202e-02 8.75061378e-02 4.84076515e-02
      2.79274900e-02 9.55120146e-01 1.28294766e-01 1.98766552e-02
      4.51742150e-02 5.96299618e-02 1.91538677e-01 3.61393727e-02
      6.14369325e-02 3.97533104e-02 8.13135877e-02 9.63114262e-01
      8.11410248e-02 1.95857640e-02 1.11918654e-02 4.19694930e-03
      5.45603447e-02 1.53888147e-02 1.53888147e-02 1.25908488e-02
      5.17623760e-02 9.93278086e-01 1.08556077e-01 2.39191353e-02
      2.31831610e-01 4.78382707e-02 8.27970058e-02 2.75990013e-02
      2.94389352e-02 8.27970058e-02 6.62376061e-02 9.54925478e-01
      6.52446687e-01 1.04637675e-01 2.30818406e-01 1.29258305e-01
      2.46206298e-01 2.89292395e-01 1.50801361e-01 3.90852511e-01
      2.24663243e-01 3.50843966e-01 6.46651983e-01 1.64832860e-01
      2.94797242e-01 1.93361625e-01 2.97967106e-01 3.39175314e-01
      1.61662996e-01 2.82117784e-01 1.68002725e-01 3.04306835e-01
      2.53646940e-01 4.83137034e-02 1.22797333e-01 4.02614176e-02
      4.42875624e-02 4.83137034e-02 4.22744900e-02 5.63659891e-02
      2.31503159e-01 9.23999548e-01 2.37353384e-01 7.97826499e-02
      1.15684845e-01 1.79510973e-02 6.38261214e-02 3.39076258e-02
      6.78152516e-02 8.37717876e-02 1.55576169e-01 9.39440727e-01
      6.21299326e-01 1.26795784e-01 3.29669029e-01 1.90193668e-01
      2.75780827e-01 3.13819557e-01 1.48985043e-01 3.58198076e-01
      1.77514091e-01 3.10649663e-01 7.20561147e-01 1.67218834e-01
      2.64509797e-01 1.94581911e-01 2.52348423e-01 2.85792172e-01
      1.30734727e-01 3.04034233e-01 1.67218834e-01 2.49308079e-01
      1.78028971e-01 2.49240547e-02 8.18933249e-02 3.20452154e-02
      2.49240547e-02 1.24620274e-02 1.60226077e-02 1.81589544e-01
      9.25750658e-02 9.57795858e-01 8.71161222e-02 3.79376635e-02
      5.62039483e-03 7.02549331e-03 3.37223709e-02 4.21529599e-02
      1.68611854e-02 2.24815793e-02 1.82662830e-02 9.93404806e-01
      2.24149376e-01 3.32073160e-02 6.43391758e-02 7.88673759e-02
      1.76413864e-01 1.36980176e-01 7.47164637e-02 7.26410002e-02
      7.26410002e-02 9.33955789e-01 3.25439125e-01 3.77320722e-02
      9.43301767e-02 1.34420514e-01 1.83943853e-01 7.07476363e-02
      2.05168143e-01 8.96136686e-02 1.06121451e-01 8.74912441e-01
      8.60265270e-02 5.93286380e-03 2.07650233e-02 1.77985914e-02
      4.44964785e-03 2.96643190e-03 9.34426039e-02 9.93754715e-02
      1.77985914e-02 9.86338615e-01</_>
    <_>
      2.91420668e-01 5.71870208e-02 1.02717213e-01 8.00892562e-02
      1.49755940e-01 8.62605199e-02 8.73576328e-02 1.03814326e-01
      1.01757243e-01 9.14443791e-01 5.33472225e-02 5.61549701e-03
      6.87898397e-02 5.05394712e-02 2.66736113e-02 7.01937126e-03
      1.96542405e-02 1.40387425e-02 2.38658618e-02 9.93942976e-01
      2.20711082e-01 3.23455893e-02 6.84965402e-02 1.61727950e-01
      9.13287252e-02 4.56643626e-02 5.13724089e-02 6.46911785e-02
      2.66375449e-02 9.49438214e-01 1.71382457e-01 1.44322067e-02
      2.52563618e-02 3.42764929e-02 2.54367650e-01 2.88644135e-02
      4.14925963e-02 2.34523360e-02 8.47892165e-02 9.45309520e-01
      5.61384186e-02 1.15155727e-02 2.01522522e-02 1.58339124e-02
      1.00761265e-01 7.19723292e-03 1.43944658e-02 1.00761261e-02
      6.90934360e-02 9.90339279e-01 2.36591414e-01 1.32491188e-02
      1.41954854e-01 3.21764313e-02 7.19237924e-02 1.32491188e-02
      5.86746708e-02 8.13874453e-02 1.07885681e-01 9.46365654e-01
      6.63400769e-01 1.43685877e-01 1.22285858e-01 1.52857319e-01
      2.87371755e-01 2.93486059e-01 1.49800181e-01 2.87371755e-01
      2.38457426e-01 4.12714779e-01 6.78048074e-01 1.50336459e-01
      2.48515368e-01 1.31927907e-01 2.63855815e-01 2.76128173e-01
      2.11698264e-01 2.20902547e-01 1.65676907e-01 4.14192259e-01
      3.16626549e-01 4.95402068e-02 1.20619640e-01 3.44627537e-02
      1.09850027e-01 6.67715818e-02 8.18490386e-02 7.96951205e-02
      1.72313765e-01 9.06801224e-01 3.24364930e-01 9.86244678e-02
      6.35579899e-02 3.50664780e-02 1.18349366e-01 6.13663346e-02
      7.67079219e-02 1.18349366e-01 1.75332397e-01 9.00770128e-01
      6.98015630e-01 1.35298178e-01 2.21397027e-01 2.12172151e-01
      3.56695205e-01 2.76746273e-01 1.72197685e-01 2.55221575e-01
      1.69122726e-01 2.70596355e-01 7.07134008e-01 2.10899606e-01
      2.38812789e-01 2.20203996e-01 3.16349417e-01 2.82233298e-01
      1.92290813e-01 1.86087891e-01 1.79884955e-01 2.57421583e-01
      1.99636415e-01 5.61477430e-02 1.72602311e-01 7.69432038e-02
      1.20613664e-01 2.49545518e-02 4.78295572e-02 1.78840950e-01
      6.23863786e-02 9.31636572e-01 8.96525607e-02 3.36197093e-02
      5.60328504e-03 1.40082126e-03 3.08180675e-02 3.64213511e-02
      8.40492733e-03 2.24131402e-02 3.92229967e-02 9.93182302e-01
      3.25954348e-01 5.76517917e-02 7.76081830e-02 6.43039197e-02
      1.90694392e-01 1.48564234e-01 5.98691702e-02 7.31734261e-02
      1.01999328e-01 8.95820141e-01 4.52408016e-01 4.03935723e-02
      1.53495580e-01 1.80424616e-01 2.28896901e-01 8.88658613e-02
      2.69290477e-01 1.34645239e-01 1.18487813e-01 7.56706238e-01
      7.60904402e-02 7.76433107e-03 4.19273861e-02 2.63987258e-02
      3.41630578e-02 1.24229295e-02 1.04042038e-01 1.00936301e-01
      9.31719691e-03 9.84517157e-01</_>
    <_>
      2.65872687e-01 9.59097221e-02 1.00079708e-01 1.20785855e-01
      1.16903454e-01 7.64977112e-02 1.23230331e-01 1.10001400e-01
      1.52851626e-01 9.08482194e-01 6.85331449e-02 5.59454225e-03
      5.31481504e-02 3.35672535e-02 1.39863556e-02 1.25877205e-02
      3.35672535e-02 2.37768050e-02 1.95808969e-02 9.94429886e-01
      2.38387316e-01 2.32572984e-02 5.81432469e-02 1.87996492e-01
      5.81432469e-02 4.84527051e-02 1.00781627e-01 6.00813553e-02
      2.90716235e-02 9.39982474e-01 3.07964087e-01 8.72969106e-02
      7.27474242e-02 1.13970965e-01 3.41912895e-01 5.33481129e-02
      1.52769595e-01 7.03225136e-02 1.38220102e-01 8.43870103e-01
      6.84508607e-02 3.18376091e-03 1.91025659e-02 1.11431628e-02
      1.62371799e-01 3.18376091e-03 1.91025659e-02 1.75106842e-02
      1.57596171e-01 9.71047103e-01 4.28854108e-01 8.41422603e-02
      2.44283989e-01 1.11284927e-01 1.60141721e-01 4.88567986e-02
      1.60141721e-01 1.46570399e-01 3.03997844e-01 7.54566073e-01
      6.37810111e-01 1.97721139e-01 2.07288295e-01 3.50795567e-01
      1.53074428e-01 2.29611635e-01 3.63551766e-01 2.64691204e-01
      2.07288295e-01 2.58313090e-01 5.87671876e-01 3.45499396e-01
      2.48630404e-01 3.42270434e-01 1.06555894e-01 1.71135217e-01
      2.58317322e-01 2.00195909e-01 3.35812509e-01 3.09980780e-01
      7.86548629e-02 7.86548667e-03 5.34853078e-02 1.25847785e-02
      2.83157509e-02 7.86548667e-03 2.98888497e-02 2.98888497e-02
      1.91917866e-01 9.75320339e-01 2.56944448e-01 2.15277776e-01
      8.56481493e-02 4.62962985e-02 7.63888881e-02 5.32407425e-02
      9.49074104e-02 1.41203701e-01 2.24537045e-01 8.88888896e-01
      5.96341193e-01 2.86765158e-01 1.75969526e-01 2.70471662e-01
      1.98780388e-01 2.05297783e-01 2.67212987e-01 3.29128176e-01
      3.87784690e-01 2.15073869e-01 6.38002217e-01 1.51604488e-01
      2.30565161e-01 3.97961795e-01 1.67396620e-01 2.08456174e-01
      3.34793240e-01 1.80030331e-01 2.65307844e-01 2.68466294e-01
      1.65759489e-01 1.06559671e-01 8.87997299e-02 6.11731447e-02
      4.73598540e-02 3.35465632e-02 5.13065085e-02 2.03252703e-01
      7.10397810e-02 9.47197080e-01 7.74439275e-02 1.46470040e-01
      2.69370191e-02 1.68356374e-02 6.22918569e-02 1.16165891e-01
      1.85192004e-02 1.85192004e-02 5.72411641e-02 9.74783361e-01
      3.46093893e-01 5.93303815e-02 8.89955685e-02 1.75519034e-01
      2.34849423e-01 1.68102741e-01 5.19140810e-02 7.91071728e-02
      1.75519034e-01 8.45457911e-01 1.47910237e-01 2.00865753e-02
      7.12160394e-02 8.39984044e-02 1.11389190e-01 2.55647320e-02
      1.40606031e-01 3.28689404e-02 4.56513092e-02 9.64155614e-01
      1.09729193e-01 4.70267981e-03 3.13511975e-02 2.03782786e-02
      1.25404792e-02 9.40535963e-03 1.09729193e-01 1.19134553e-01
      1.41080394e-02 9.79724944e-01</_>
    <_>
      2.61492759e-01 5.21299355e-02 1.20980792e-01 8.59933197e-02
      1.42900661e-01 8.89440700e-02 1.02854751e-01 1.23791032e-01
      1.30114064e-01 9.14170802e-01 7.23313317e-02 6.02761097e-03
      8.28796476e-02 8.43865573e-02 1.80828329e-02 9.04141646e-03
      3.31518613e-02 3.91794704e-02 2.26035416e-02 9.88528192e-01
      3.32342029e-01 3.29984985e-02 6.12829253e-02 2.42774665e-01
      1.34351030e-01 1.39065102e-01 1.10780679e-01 1.03709571e-01
      9.42814276e-02 8.69746149e-01 1.10330209e-01 2.62690969e-02
      3.67767364e-02 2.45178249e-02 1.89137504e-01 2.80203708e-02
      5.25381938e-02 4.55331020e-02 9.63200256e-02 9.66702819e-01
      3.56780402e-02 5.94634004e-03 1.48658501e-02 1.93256047e-02
      1.27846316e-01 7.43292505e-03 1.04060955e-02 7.43292505e-03
      1.26359731e-01 9.82632697e-01 2.37208351e-01 3.84051614e-02
      2.41726592e-01 5.42190522e-02 1.08438104e-01 5.19599244e-02
      8.81059542e-02 1.78471044e-01 1.35547623e-01 8.99132609e-01
      6.86506689e-01 1.00176938e-01 4.03654128e-01 9.13378000e-02
      1.73836455e-01 1.73836455e-01 2.32764065e-01 3.91868621e-01
      2.06246644e-01 1.91514730e-01 5.91091812e-01 8.21838900e-02
      2.90804535e-01 1.29597679e-01 2.87643611e-01 3.76149327e-01
      1.89655125e-01 3.09770048e-01 2.11781561e-01 3.76149327e-01
      1.93067566e-01 1.10324323e-02 9.19369310e-02 1.28711704e-02
      4.22909893e-02 4.22909893e-02 4.96459454e-02 6.98720664e-02
      1.89390078e-01 9.52466607e-01 3.51533920e-01 1.43217519e-01
      1.27593786e-01 7.55146891e-02 2.39563853e-01 7.55146891e-02
      1.06762148e-01 1.69257060e-01 2.31751978e-01 8.22849751e-01
      6.49286568e-01 1.55956089e-01 3.31008822e-01 2.10063294e-01
      3.31008822e-01 2.00514957e-01 2.03697741e-01 3.02363843e-01
      2.06880525e-01 2.73718834e-01 5.57428956e-01 2.27456644e-01
      3.49193990e-01 2.43474707e-01 2.11438566e-01 1.98624104e-01
      2.62696385e-01 1.69791579e-01 1.66587964e-01 4.96560276e-01
      1.76271766e-01 1.28531493e-02 5.69210872e-02 2.20339708e-02
      6.61019087e-02 1.46893132e-02 7.52827302e-02 1.72599435e-01
      9.91528630e-02 9.56641555e-01 1.07875727e-01 6.25366569e-02
      3.12683266e-03 1.71975791e-02 4.53390740e-02 8.75513107e-02
      2.03244127e-02 1.87609959e-02 5.94098195e-02 9.84952271e-01
      2.21361592e-01 1.93422753e-02 4.51319739e-02 1.05307937e-01
      2.38554716e-01 1.80527896e-01 4.51319739e-02 5.58776818e-02
      1.11755364e-01 9.11236048e-01 3.04425567e-01 4.51881699e-02
      7.61063918e-02 1.49834454e-01 2.02157602e-01 4.99448180e-02
      2.25940853e-01 8.08630437e-02 1.35564506e-01 8.70466828e-01
      6.78888559e-02 1.47584477e-03 2.21376717e-02 2.50893608e-02
      1.47584472e-02 0. 9.44540650e-02 7.82197714e-02 3.54202762e-02
      9.88815963e-01</_>
    <_>
      2.66107142e-01 6.67802915e-02 1.31677404e-01 9.37241837e-02
      1.31677404e-01 9.54624936e-02 1.20957792e-01 1.36312917e-01
      1.37761503e-01 9.05517578e-01 6.94633052e-02 1.23490319e-02
      1.00335881e-01 1.11141287e-01 2.77853217e-02 9.26177390e-03
      2.62416936e-02 2.62416936e-02 2.16108058e-02 9.84835267e-01
      3.35608631e-01 3.05098761e-02 8.21419731e-02 2.27650613e-01
      1.12651855e-01 1.24386422e-01 1.07958026e-01 1.40814811e-01
      7.74481446e-02 8.73051822e-01 1.65884420e-01 3.98962498e-02
      6.71936870e-02 4.82954606e-02 2.09980279e-01 1.02890335e-01
      8.18923041e-02 9.86907259e-02 1.40686780e-01 9.34412181e-01
      2.64650509e-02 7.78383855e-03 9.34060663e-03 1.40109099e-02
      1.61903843e-01 1.71244442e-02 1.86812133e-02 1.40109099e-02
      1.58790305e-01 9.72979844e-01 1.74224541e-01 5.31172380e-02
      2.20967710e-01 4.46184799e-02 7.86135122e-02 7.86135122e-02
      9.98604074e-02 1.35980129e-01 9.56110284e-02 9.30613995e-01
      5.18606722e-01 1.32129103e-01 1.68464616e-01 2.37832397e-01
      3.07200164e-01 2.90684044e-01 2.84077585e-01 3.33626002e-01
      2.70864666e-01 4.29419607e-01 6.11781836e-01 2.39533633e-01
      3.46352696e-01 1.45662352e-01 1.74794823e-01 3.04272473e-01
      2.62192219e-01 3.23694110e-01 2.13638112e-01 2.91324705e-01
      2.24648878e-01 2.33126190e-02 9.53698084e-02 3.81479226e-02
      2.75512785e-02 6.78185299e-02 1.65307671e-01 9.74891335e-02
      2.56438822e-01 9.11311507e-01 4.73693311e-01 2.46542141e-01
      1.77288726e-01 4.70923185e-02 1.99449822e-01 6.37131333e-02
      1.27426267e-01 1.93909541e-01 2.38231719e-01 7.25775719e-01
      6.54385746e-01 1.38427764e-01 3.58653724e-01 2.07641631e-01
      2.57979006e-01 1.73034698e-01 1.73034698e-01 3.27192873e-01
      2.48540744e-01 2.92585939e-01 6.07827067e-01 1.38288692e-01
      3.02305520e-01 2.54065275e-01 2.37985194e-01 2.47633234e-01
      2.34769180e-01 2.57281303e-01 1.89744949e-01 4.24514115e-01
      1.40395939e-01 2.03472376e-02 1.11909807e-01 6.30764365e-02
      6.91806078e-02 2.44166851e-02 1.18013978e-01 2.19750166e-01
      1.26152873e-01 9.38007653e-01 7.93942660e-02 7.50636682e-02
      4.33059596e-03 1.15482565e-02 3.03141735e-02 4.76365574e-02
      2.16529816e-02 1.29917888e-02 2.45400444e-02 9.91706550e-01
      2.26264805e-01 3.11373584e-02 1.20397791e-01 6.01988956e-02
      1.39080212e-01 1.03791200e-01 7.88813084e-02 5.39714247e-02
      1.18321963e-01 9.36196625e-01 3.99164647e-01 2.20397655e-02
      1.24892004e-01 1.02852240e-01 1.91011310e-01 8.32613409e-02
      2.32641980e-01 1.07749969e-01 1.07749969e-01 8.32613409e-01
      8.27572122e-02 6.01870660e-03 3.76169160e-02 2.70841792e-02
      2.10654736e-02 7.52338301e-03 7.37291574e-02 8.42618942e-02
      2.55795028e-02 9.88572538e-01</_>
    <_>
      2.92122006e-01 7.68815801e-02 8.20630342e-02 9.73273218e-02
      1.06009759e-01 8.02425221e-02 1.16232626e-01 9.90077928e-02
      1.57404184e-01 9.09275234e-01 1.00333735e-01 3.08719184e-03
      8.18105862e-02 7.71797970e-02 1.85231511e-02 1.85231511e-02
      2.62411311e-02 4.16770913e-02 3.55027057e-02 9.86357808e-01
      2.79555351e-01 3.30183506e-02 6.38354719e-02 1.82701528e-01
      9.46526006e-02 3.52195725e-02 1.47481963e-01 1.01256274e-01
      1.36475846e-01 9.06903982e-01 4.21964049e-01 1.25584543e-01
      5.27455062e-02 1.10514395e-01 2.31075555e-01 9.54442546e-02
      1.28096238e-01 9.54442546e-02 1.80841744e-01 8.18811238e-01
      5.53068593e-02 1.79373585e-02 1.04634594e-02 1.49478000e-02
      1.15098059e-01 7.47389998e-03 1.49478000e-02 1.34530198e-02
      1.10613719e-01 9.85059977e-01 3.00999135e-01 3.44655514e-02
      1.72327757e-01 5.28471768e-02 1.10289767e-01 3.67632546e-02
      1.14885174e-01 1.53946131e-01 2.06793308e-01 8.84615839e-01
      7.27217734e-01 1.62945047e-01 1.41822547e-01 2.80627578e-01
      2.02172562e-01 1.81050062e-01 3.10802609e-01 1.90102562e-01
      2.11225063e-01 3.07785094e-01 7.22187638e-01 1.85098514e-01
      1.63857698e-01 2.94336975e-01 2.39717752e-01 2.27580145e-01
      3.27715397e-01 1.30479276e-01 2.09373727e-01 2.30614543e-01
      2.41291195e-01 9.65164751e-02 8.39273706e-02 2.72763968e-02
      9.65164751e-02 7.76328221e-02 5.87491617e-02 6.92400858e-02
      2.11916611e-01 9.25299287e-01 1.86320558e-01 1.14658803e-01
      7.37092346e-02 3.27596590e-02 5.32344468e-02 2.86647007e-02
      9.82789770e-02 8.39466229e-02 2.39555001e-01 9.31602776e-01
      5.77738643e-01 1.60654604e-01 1.73012644e-01 2.34802872e-01
      1.97728738e-01 1.48296550e-01 1.82281181e-01 1.91549718e-01
      4.01636511e-01 5.12858927e-01 6.18888974e-01 2.65684664e-01
      2.03170627e-01 2.03170627e-01 2.18799144e-01 1.62536502e-01
      1.71913609e-01 1.65662214e-01 3.31324428e-01 4.71981019e-01
      2.13645026e-01 1.84176750e-02 8.28795359e-02 9.02466029e-02
      5.15694879e-02 2.21012086e-02 5.34112565e-02 1.34449020e-01
      3.49935815e-02 9.55877304e-01 7.91664422e-02 7.15542883e-02
      1.37018841e-02 9.13458969e-03 3.50159258e-02 8.83010328e-02
      1.52243162e-02 2.13140436e-02 4.87178117e-02 9.88058090e-01
      3.69641125e-01 4.76956293e-02 5.48499711e-02 6.67738765e-02
      1.02545597e-01 2.17015103e-01 1.12084724e-01 1.24008633e-01
      1.97936848e-01 8.53751719e-01 2.24276766e-01 3.14406678e-02
      3.56327593e-02 6.28813356e-02 6.07852936e-02 6.91694692e-02
      2.30564907e-01 1.15282454e-01 1.34146854e-01 9.22259629e-01
      8.06193426e-02 1.25098983e-02 1.25098983e-02 1.66798644e-02
      1.38998870e-02 8.33993219e-03 5.28195724e-02 4.30896506e-02
      1.66798644e-02 9.93841946e-01</_>
    <_>
      3.21056277e-01 6.05766550e-02 1.03543818e-01 7.05788434e-02
      1.25802219e-01 9.36824977e-02 8.45255628e-02 1.36649668e-01
      1.32423386e-01 8.99774611e-01 7.26185963e-02 1.45237194e-03
      6.09996207e-02 6.09996207e-02 1.74284633e-02 1.01666041e-02
      3.48569266e-02 3.34045552e-02 2.32379511e-02 9.91970062e-01
      3.85787785e-01 3.93159539e-02 7.61746615e-02 1.99037015e-01
      1.40063092e-01 1.20405108e-01 1.15490615e-01 1.35148585e-01
      1.54806569e-01 8.45292985e-01 2.55963057e-01 1.81391146e-02
      3.42627726e-02 5.64328022e-02 1.39066547e-01 4.63555157e-02
      8.46492052e-02 1.14881061e-01 1.31004721e-01 9.33156729e-01
      8.05847943e-02 1.15121137e-02 1.15121137e-02 1.00730993e-02
      7.19507113e-02 1.29511282e-02 2.15852130e-02 2.15852130e-02
      6.18776120e-02 9.91480768e-01 2.91792691e-01 4.64215651e-02
      1.43685803e-01 3.75793613e-02 7.29481727e-02 5.30532151e-02
      6.63165227e-02 1.76844060e-01 2.03370661e-01 8.97483587e-01
      7.48269379e-01 1.22762948e-01 2.77678102e-01 1.11071236e-01
      2.16296613e-01 2.48448819e-01 1.57838076e-01 3.41982484e-01
      1.66606858e-01 2.39680037e-01 6.46566808e-01 1.14618659e-01
      2.23359436e-01 1.29313365e-01 2.32176259e-01 2.70382464e-01
      1.11679718e-01 2.55687773e-01 1.32252291e-01 5.29009163e-01
      2.37493351e-01 4.05476429e-02 8.49569663e-02 2.51009222e-02
      6.56485632e-02 4.63401638e-02 4.82710041e-02 7.91644454e-02
      1.66052252e-01 9.44180846e-01 5.19164324e-01 1.78637192e-01
      1.25604272e-01 5.58241233e-02 1.73054785e-01 1.45142719e-01
      8.09449777e-02 2.34461308e-01 3.15406293e-01 6.83845520e-01
      6.99351490e-01 1.87326282e-01 2.74745226e-01 1.65471554e-01
      2.93477863e-01 2.37279966e-01 1.93570495e-01 2.80989438e-01
      2.40402073e-01 2.37279966e-01 6.15361571e-01 1.49082437e-01
      3.17196697e-01 1.26878679e-01 2.85477012e-01 2.72789150e-01
      1.71286210e-01 3.14024717e-01 2.09349811e-01 3.93323898e-01
      1.71645671e-01 1.59258861e-02 7.78598860e-02 2.65431441e-02
      5.30862883e-02 2.47736014e-02 4.24690321e-02 1.57489315e-01
      5.83949164e-02 9.64400887e-01 8.66863951e-02 6.42675012e-02
      1.04621509e-02 1.49459299e-02 5.38053475e-02 4.33431976e-02
      7.47296494e-03 1.04621509e-02 6.42675012e-02 9.89420533e-01
      3.25704634e-01 4.43135574e-02 4.65292335e-02 7.31173679e-02
      1.68391526e-01 1.17430925e-01 6.20389804e-02 7.53330439e-02
      1.88332617e-01 8.92918169e-01 4.44976330e-01 6.46334365e-02
      8.20347443e-02 1.26780972e-01 2.08815709e-01 8.94924477e-02
      1.83956698e-01 9.94360521e-02 1.21809170e-01 8.15375626e-01
      1.07941642e-01 5.91461034e-03 2.80943997e-02 1.33078732e-02
      1.92224830e-02 8.87191575e-03 7.24539757e-02 7.68899322e-02
      1.03505682e-02 9.87739921e-01</_>
    <_>
      2.66236752e-01 7.04364255e-02 7.34089687e-02 8.19388852e-02
      8.11634436e-02 5.57029359e-02 1.06753185e-01 7.74154440e-02
      1.14249177e-01 9.33767259e-01 7.04245418e-02 2.87447125e-03
      7.76107237e-02 5.89266606e-02 1.29351206e-02 4.31170687e-03
      2.01212987e-02 2.73074768e-02 2.73074768e-02 9.91692603e-01
      9.26262289e-02 7.98502006e-03 3.19400802e-02 1.26163319e-01
      3.51340882e-02 2.87460722e-02 7.66561925e-02 3.99250984e-02
      1.59700401e-02 9.82157469e-01 3.12658072e-01 6.07946217e-02
      4.34247330e-02 7.16508031e-02 1.88897580e-01 6.73083365e-02
      9.11919326e-02 8.90206993e-02 1.23760484e-01 9.05405641e-01
      7.99785033e-02 1.62919164e-02 4.44325013e-03 1.03675835e-02
      1.12562336e-01 2.36973334e-02 2.51784176e-02 1.62919164e-02
      5.62811680e-02 9.87882614e-01 2.29493812e-01 3.82489674e-02
      1.89231738e-01 4.22751755e-02 7.85110369e-02 1.81179326e-02
      5.23406938e-02 1.04681388e-01 1.24812424e-01 9.34080064e-01
      7.06505835e-01 1.80934414e-01 1.17750965e-01 2.52733797e-01
      1.40726760e-01 1.06263071e-01 2.69965649e-01 1.34982824e-01
      1.95294291e-01 4.79619801e-01 7.47388601e-01 2.91305006e-01
      1.50066212e-01 1.88318387e-01 1.70663536e-01 1.67721063e-01
      2.05973238e-01 1.44181266e-01 2.26570562e-01 3.56039464e-01
      1.66937530e-01 6.16943054e-02 3.62907685e-02 3.26616913e-02
      4.53634597e-02 3.81053053e-02 5.80652282e-02 4.53634597e-02
      1.88711986e-01 9.59890783e-01 8.13608468e-02 7.62757882e-02
      8.81409124e-02 8.47508758e-03 2.54252627e-02 2.54252627e-02
      6.61056861e-02 3.89854051e-02 1.38991445e-01 9.76330101e-01
      6.69795513e-01 1.00469328e-01 1.33959115e-01 1.89775407e-01
      1.20005034e-01 8.09336305e-02 2.56754965e-01 1.64658070e-01
      2.28846803e-01 5.66535413e-01 7.85142183e-01 2.66489863e-01
      1.74794421e-01 1.74794421e-01 1.14619292e-01 1.43274114e-01
      2.09180206e-01 1.77659899e-01 2.80817270e-01 2.52162457e-01
      3.55380416e-01 9.95065123e-02 1.13721728e-01 1.01875715e-01
      7.81836882e-02 5.21224588e-02 1.42152160e-01 1.80059403e-01
      1.37413755e-01 8.71866584e-01 7.01379776e-02 4.86671664e-02
      1.57452598e-02 1.00197112e-02 3.29219066e-02 4.15102318e-02
      1.14510981e-02 1.57452598e-02 4.86671664e-02 9.93382752e-01
      2.19595656e-01 4.83513400e-02 1.61171127e-02 6.04391731e-02
      1.04761235e-01 1.47068650e-01 1.24907620e-01 5.64098954e-02
      9.46880355e-02 9.40836430e-01 2.47322261e-01 1.39617408e-02
      4.18852232e-02 1.13688461e-01 7.97813758e-02 3.19125503e-02
      2.11420640e-01 5.58469631e-02 6.98087066e-02 9.29453015e-01
      7.87432417e-02 4.29508602e-03 2.29071248e-02 1.71803441e-02
      2.43388209e-02 7.15847639e-03 6.15628995e-02 6.15628995e-02
      1.86120383e-02 9.92164850e-01</_>
    <_>
      4.80034977e-01 1.01685330e-01 8.93411338e-02 1.25910819e-01
      1.26373723e-01 7.76141435e-02 1.30848497e-01 1.04154170e-01
      1.77293539e-01 8.08699250e-01 1.05502784e-01 1.73213538e-02
      8.81814361e-02 5.98374009e-02 2.99187005e-02 3.77920419e-02
      3.30680385e-02 4.25160490e-02 1.73213538e-02 9.85742450e-01
      4.62676972e-01 3.68300080e-02 4.60375100e-02 1.93357542e-01
      1.21999398e-01 5.06412610e-02 1.05886273e-01 8.97731483e-02
      1.33508772e-01 8.30977082e-01 6.09780371e-01 5.10174818e-02
      6.31645024e-02 9.47467461e-02 2.38081574e-01 4.37292680e-02
      1.33617207e-01 8.01703259e-02 1.62770063e-01 7.09385931e-01
      1.35575712e-01 1.02046244e-02 7.28901708e-03 1.45780342e-02
      4.95653152e-02 1.45780342e-02 1.31202303e-02 1.60358381e-02
      6.41433522e-02 9.86932933e-01 5.06274581e-01 9.90537256e-02
      3.16421628e-01 1.78847015e-01 1.87101483e-01 2.75149234e-02
      1.18314177e-01 1.43077612e-01 1.98107451e-01 7.01630592e-01
      7.27730632e-01 2.58418620e-01 1.27724141e-01 2.31685668e-01
      1.69308752e-01 1.45546123e-01 2.34655991e-01 1.42575800e-01
      2.61388958e-01 3.74261469e-01 7.53508270e-01 2.84658670e-01
      1.31166250e-01 1.59073979e-01 8.93046856e-02 1.08840086e-01
      1.61864743e-01 1.25584722e-01 3.90707999e-01 3.06984842e-01
      5.04384816e-01 2.73874104e-02 6.39039576e-02 6.61862418e-02
      1.52913034e-01 4.10811156e-02 6.84685260e-02 7.53153786e-02
      2.57898122e-01 7.96517193e-01 5.45245588e-01 2.54259616e-01
      1.04528949e-01 9.32285190e-02 1.58205971e-01 1.44080445e-01
      1.46905556e-01 1.44080445e-01 2.79685557e-01 6.72375381e-01
      7.83156276e-01 1.45443305e-01 1.09082475e-01 3.10465515e-01
      1.11879468e-01 1.51037276e-01 3.04871529e-01 1.31458372e-01
      2.09774002e-01 2.60119766e-01 7.70595670e-01 2.25117832e-01
      1.32761791e-01 2.91498721e-01 1.38534054e-01 1.47192433e-01
      3.00157100e-01 1.41420171e-01 2.07801074e-01 2.42434591e-01
      5.00871539e-01 8.93446505e-02 1.24541029e-01 8.39298218e-02
      1.32663265e-01 1.16418786e-01 1.57029986e-01 2.35544980e-01
      2.62619108e-01 7.33709097e-01 9.04782861e-02 7.08746612e-02
      1.65876858e-02 1.50797144e-02 6.18268289e-02 3.46833430e-02
      1.65876858e-02 1.50797144e-02 4.67471145e-02 9.89229262e-01
      6.12734973e-01 1.12872235e-01 4.29989472e-02 1.45121440e-01
      2.23057032e-01 1.50496319e-01 1.04809932e-01 9.94350687e-02
      2.82180578e-01 6.44984186e-01 6.68420792e-01 4.30422500e-02
      7.59569108e-02 1.49381921e-01 1.26594856e-01 6.07655272e-02
      2.12679356e-01 1.41786233e-01 1.56977624e-01 6.43101871e-01
      1.63802639e-01 1.28472662e-02 2.24827155e-02 2.73004398e-02
      3.85417975e-02 1.76649913e-02 8.02954137e-02 8.02954137e-02
      2.40886249e-02 9.77998137e-01</_>
    <_>
      4.03600186e-01 8.38246495e-02 1.33188054e-01 9.20518860e-02
      1.47934988e-01 1.31946206e-01 1.16423130e-01 1.58801153e-01
      1.24805592e-01 8.42748225e-01 1.08702779e-01 2.20802519e-02
      1.46069363e-01 1.27386063e-01 2.37787329e-02 2.20802519e-02
      6.11453131e-02 3.73665802e-02 8.49240460e-03 9.71531093e-01
      5.19797683e-01 5.17076217e-02 1.46958500e-01 2.31323570e-01
      1.79615945e-01 1.25186875e-01 1.44237056e-01 2.17716306e-01
      1.08858153e-01 7.23906696e-01 3.27204674e-01 3.75843197e-02
      8.84336978e-02 4.64276895e-02 2.23295093e-01 7.51686394e-02
      7.73794875e-02 8.62228572e-02 1.37072235e-01 8.90969515e-01
      7.22967759e-02 1.44593548e-02 2.16890313e-02 1.15674837e-02
      6.79589659e-02 2.02430971e-02 1.44593548e-02 2.02430971e-02
      6.65130317e-02 9.91911709e-01 5.61451554e-01 1.72529370e-01
      2.74877310e-01 9.35752541e-02 1.54984012e-01 1.98847413e-01
      1.75453603e-01 2.07620099e-01 1.52059793e-01 6.40405655e-01
      7.24437714e-01 1.84127927e-01 3.04867536e-01 1.14702642e-01
      2.89775074e-01 2.32423767e-01 1.93183392e-01 2.92793572e-01
      1.59979999e-01 2.20349804e-01 7.15506375e-01 1.81908414e-01
      1.94035634e-01 1.57653958e-01 3.09244305e-01 3.06212485e-01
      1.36431307e-01 2.75894403e-01 1.69781178e-01 2.81958044e-01
      4.74189341e-01 5.77055812e-02 1.12902224e-01 6.02145195e-02
      1.30464792e-01 1.10393286e-01 1.07884347e-01 1.60572052e-01
      2.53402770e-01 7.90315568e-01 5.44738233e-01 2.15564862e-01
      2.24303976e-01 1.01956353e-01 1.63130164e-01 1.71869278e-01
      1.89347520e-01 1.71869278e-01 1.71869278e-01 6.67085886e-01
      7.27228582e-01 1.38233542e-01 2.76467085e-01 2.04345226e-01
      2.67451853e-01 1.95329994e-01 1.56263992e-01 2.97502607e-01
      1.38233542e-01 3.03512752e-01 6.78067267e-01 1.31931648e-01
      3.00681412e-01 1.50340706e-01 2.54658759e-01 2.45454222e-01
      1.31931648e-01 2.79204160e-01 2.05567911e-01 3.83522213e-01
      2.85531640e-01 3.35919559e-02 5.87859228e-02 2.93929614e-02
      5.87859228e-02 4.61889394e-02 9.02783796e-02 2.37243190e-01
      1.42765820e-01 9.06982780e-01 9.93757620e-02 7.88696483e-02
      2.05061100e-02 1.57739297e-02 4.88991849e-02 1.00953154e-01
      1.73513237e-02 2.05061100e-02 3.31252553e-02 9.84293282e-01
      4.91133153e-01 6.67300448e-02 5.07148355e-02 9.87604707e-02
      1.84174940e-01 3.06958228e-01 1.86844140e-01 1.49475306e-01
      1.33460090e-01 7.34030545e-01 4.57301885e-01 4.57301885e-02
      5.77644482e-02 9.14603770e-02 1.22749455e-01 1.03494637e-01
      1.85327604e-01 1.54038534e-01 1.25156313e-01 8.23143423e-01
      9.83405262e-02 7.33884517e-03 1.17421523e-02 1.02743832e-02
      2.20165364e-02 7.33884517e-03 6.31140694e-02 7.33884498e-02
      3.81619930e-02 9.89276350e-01</_>
    <_>
      2.52326757e-01 6.36243299e-02 1.21415295e-01 7.20352158e-02
      1.15039296e-01 9.29267853e-02 8.16670433e-02 1.14225335e-01
      1.14089675e-01 9.26147699e-01 4.38230038e-02 4.24093613e-03
      1.01782463e-01 8.90596583e-02 1.83773898e-02 2.82729068e-03
      1.27228079e-02 5.65458136e-03 4.24093613e-03 9.89551723e-01
      1.92014426e-01 2.22332496e-02 9.70178097e-02 1.92014426e-01
